static 0.01194435 0.05219176 0.07437594 0.01966533 -0.21038517 -0.04548618 -0.02628304 0.01795786 -0.03479193 -0.06642744 -0.12241045 -0.05987195 0.026471 0.05848288 -0.02521153 -0.01569471 -0.01503105 0.11021295 -0.07327837 0.13548829 0.02664717 0.07000332 -0.06755032 -0.01197394 -0.00590939 0.12429873 -0.13965222 0.101618 0.0886806 0.08556967 -0.14220186 0.06754803 0.07602553 0.14771682 0.02419447 0.14522074 0.09839878 0.0215368 0.06572232 0.08283311 0.05389212 0.06427593 -0.1608821 -0.08207337 0.13155417 -0.06726554 -0.00254961 0.04996316 -0.04715174 -0.08335248 0.10498747 -0.03842204 -0.01435537 0.10484248 0.04940392 0.08662181 -0.06976004 -0.03011517 0.00572203 0.0036383 -0.04052913 -0.05086782 -0.02605024 0.01351531 -0.02251169 -0.04116023 -0.01269691 -0.11078881 -0.03655279 -0.04608043 0.0943524 0.04042348 -0.08935063 -0.08204912 0.06152598 0.01229404 0.04244898 0.0244326 -0.11570694 0.10132788 0.16726936 -0.09535228 0.02588855 -0.07369568 0.12600772 -0.10685242 -0.06935659 -0.15849908 0.15366077 0.07148479 -0.10884265 -0.11234383 0.0598681 -0.08998498 -0.15449435 -0.06353573 -0.07795769 -0.00201918 -0.12163307 0.01073085
slow 0.00736218 0.05169444 0.06882989 0.01172134 -0.18746348 -0.02417178 -0.03870714 0.04641148 -0.03046487 -0.06959839 -0.1343492 -0.0574318 0.03068331 0.06536497 -0.01689496 -0.0064204 -0.00618491 0.11272711 -0.0678577 0.11937734 0.00346177 0.0790642 -0.07484061 -0.02552791 0.00704461 0.13803235 -0.13444443 0.08722618 0.07707895 0.05948308 -0.13982572 0.03965351 0.10371564 0.14364694 0.02189747 0.15566257 0.08844085 0.03074908 0.06246678 0.07994175 0.04574176 0.05918178 -0.14749922 -0.08792085 0.13736553 -0.07535148 -0.01955332 0.01302064 -0.03731206 -0.08509029 0.08356704 -0.03455977 -0.0249997 0.10268645 0.04704959 0.08498374 -0.05660754 -0.04879459 0.00980044 -0.00859286 -0.07083169 -0.04368379 -0.04645327 0.01431117 -0.0088767 -0.0446981 0.00622562 -0.11697194 -0.05182115 -0.03565886 0.07161296 0.03739411 -0.08554052 -0.06617978 0.05424409 0.01281208 0.03382045 0.01824693 -0.10989347 0.11946568 0.1451248 -0.10657478 0.025378 -0.0762456 0.10254651 -0.11384983 -0.0807112 -0.1678111 0.13993351 0.0606599 -0.11487201 -0.11476132 0.04777267 -0.10647833 -0.13824686 -0.05687547 -0.05287307 -0.0089524 -0.12425572 0.02545756
slower 0.00696976 0.04929519 0.07089565 0.00820461 -0.18021095 -0.01961224 -0.04097646 0.05067198 -0.02958055 -0.07044592 -0.13921656 -0.05617297 0.02955614 0.06647947 -0.01704796 -0.00353431 -0.00378052 0.11464732 -0.06751297 0.11495513 0.00179211 0.08048767 -0.07983452 -0.02818521 0.00791707 0.14099273 -0.13396905 0.08613723 0.07481842 0.05614577 -0.14082244 0.03364683 0.11015899 0.14182931 0.02099333 0.15920326 0.08755712 0.03241678 0.0618133 0.0788716 0.04358956 0.05950478 -0.14621787 -0.09106073 0.1387207 -0.07837556 -0.02418119 0.00603978 -0.03556881 -0.08566672 0.08087385 -0.03453024 -0.02748351 0.10270127 0.04841434 0.08487564 -0.05721516 -0.05399606 0.0110425 -0.01256212 -0.07708529 -0.04219978 -0.04911358 0.01718971 -0.00802508 -0.04586158 0.00795942 -0.12092385 -0.05617047 -0.03168478 0.06663227 0.03666647 -0.083542 -0.06547555 0.05207729 0.01245801 0.03304016 0.01972749 -0.10928092 0.12381006 0.14090626 -0.11043436 0.02559893 -0.07558215 0.10052792 -0.11611811 -0.08372058 -0.17206196 0.13831031 0.0587108 -0.11430695 -0.11576946 0.04484322 -0.10777281 -0.13544777 -0.05511177 -0.0492002 -0.01082818 -0.12863487 0.02857396
Medium_speed 0.00356477 0.05217082 0.0669618 0.00530962 -0.17021075 -0.01484458 -0.04679141 0.06407015 -0.02815723 -0.07283759 -0.14392236 -0.05542711 0.03178518 0.06856939 -0.0131067 -0.00047347 0.0009051 0.11281475 -0.0648521 0.10924268 -0.01042559 0.08479594 -0.08008636 -0.03433524 0.01478322 0.14854321 -0.13128047 0.07727768 0.06836893 0.04433711 -0.13868056 0.02416365 0.12037434 0.13916275 0.02098179 0.16218264 0.0822577 0.03704306 0.06146797 0.07787315 0.03976818 0.05613482 -0.1409766 -0.09353411 0.14239904 -0.07877185 -0.03159521 -0.00886549 -0.0302325 -0.08490337 0.07045458 -0.03128002 -0.03113823 0.10257462 0.04529506 0.08276117 -0.04827607 -0.06142934 0.01428866 -0.01671734 -0.08942693 -0.03848154 -0.06078882 0.01475925 0.00010955 -0.04738712 0.01510419 -0.1214904 -0.06283505 -0.03047788 0.05850147 0.03597309 -0.08419595 -0.05899875 0.04873568 0.01334079 0.02784023 0.01458723 -0.10702687 0.13262592 0.13633513 -0.11248564 0.02664406 -0.07850272 0.0909772 -0.11961518 -0.08911698 -0.17417711 0.13242318 0.05399308 -0.11689354 -0.11755609 0.03927928 -0.11476061 -0.12730734 -0.05218068 -0.04114621 -0.01226971 -0.1265655 0.03693498
Faster -0.01089997 0.03547654 0.03826777 -0.00889059 -0.11232529 0.01857827 -0.06110466 0.0996497 -0.01723651 -0.06716152 -0.15667397 -0.04316172 0.0547285 0.07360835 0.00532526 0.01644766 0.00952577 0.10760269 -0.04643327 0.0697379 -0.04923368 0.10207033 -0.08508867 -0.05398614 0.01540865 0.15381329 -0.09457198 0.04923561 0.04422318 -0.01194953 -0.12962213 -0.02142264 0.1545243 0.12579171 0.01371337 0.17026569 0.05871649 0.04883572 0.05376081 0.06708498 0.02014913 0.03953347 -0.0995985 -0.0973808 0.13904226 -0.10031171 -0.06878408 -0.07913347 -0.00108086 -0.07282606 0.03181285 -0.01730005 -0.04911584 0.08247148 0.03675097 0.07624133 -0.0194567 -0.09685182 0.02150191 -0.0459252 -0.11146611 -0.01631343 -0.08637576 0.01658294 0.02452074 -0.04534555 0.04874771 -0.12493347 -0.08932611 -0.00688283 0.01077894 0.02010256 -0.05800914 -0.01100406 0.03330643 0.0133855 0.00553545 0.00359882 -0.08307289 0.1473483 0.09674524 -0.11318146 0.02481825 -0.07933527 0.05078649 -0.11729094 -0.1016353 -0.17424297 0.0996453 0.03058065 -0.13016939 -0.11263616 0.01265249 -0.12781031 -0.09340736 -0.03127553 -0.01139316 -0.02738909 -0.12740597 0.05806646
Fast -0.0120547 0.04195045 0.05382879 -0.01739018 -0.12346481 0.01719743 -0.07683801 0.12364773 -0.01440078 -0.07869908 -0.15501222 -0.04567289 0.03376343 0.07441858 0.0022161 0.02996369 0.02406182 0.11006435 -0.04865073 0.06877109 -0.05106034 0.10624123 -0.09960113 -0.06691486 0.0478297 0.16499588 -0.11679077 0.02033793 0.04429885 -0.00551633 -0.13377576 -0.04044825 0.17858364 0.11509532 0.01400144 0.1795421 0.06184509 0.05526206 0.05358149 0.06715757 0.02271566 0.04665112 -0.10103249 -0.10408642 0.14340815 -0.09676468 -0.07185659 -0.09120186 0.00237163 -0.08646826 0.02662327 -0.01529169 -0.05240047 0.09700377 0.03632722 0.05993798 -0.01901514 -0.10034561 0.02349296 -0.04939117 -0.14924897 -0.01383609 -0.10404044 0.02001988 0.03430908 -0.05043345 0.06071257 -0.13381954 -0.09960552 -0.00426681 0.0001429 0.0195983 -0.06855467 -0.02487211 0.02652062 0.01654174 0.00362577 -0.00934728 -0.09027359 0.14419599 0.09801977 -0.12970802 0.02676373 -0.0798237 0.04319964 -0.12042709 -0.11393441 -0.18810251 0.07477713 0.02411379 -0.12039418 -0.11761551 0.01076853 -0.16096677 -0.08074066 -0.03034602 0.00379968 -0.02242221 -0.1349633 0.05832685
close 0.02633084 0.11924065 -0.07550535 0.01941912 -0.00574767 -0.18005317 0.04287486 -0.17670457 -0.06394606 -0.08851668 0.00635339 -0.03104813 -0.1505931 -0.10484747 -0.11693663 -0.03292029 0.1011955 -0.09744737 -0.00279418 0.10490803 0.07345668 -0.07258186 0.10750655 0.08282046 -0.01873651 0.05196625 0.01041002 -0.01793039 -0.04726921 0.18841094 0.02025663 0.15810731 -0.10502742 -0.01791387 0.08877501 -0.07727037 0.02170223 -0.00803171 0.05016348 0.00853697 0.02943327 0.00147783 -0.058269 0.01927015 0.01671431 0.20610374 0.04404687 0.19844334 -0.08442528 0.13964725 0.09559277 0.03965969 0.0300103 0.09664889 -0.01436815 -0.13501379 -0.03244178 0.12324686 0.06524152 0.09428116 -0.02284609 -0.05769981 -0.00897466 0.02356492 0.02186725 -0.02606732 -0.14841545 0.08170482 0.05291482 -0.10619169 0.13581902 0.06307567 -0.09060678 -0.15692823 -0.04491206 -0.03492903 0.0444786 -0.04723408 -0.12052122 -0.03521385 0.11648103 0.09437381 0.06934944 -0.0629389 0.02282498 -0.01668047 -0.01538589 0.08663876 0.0841845 0.04136197 0.15752412 0.01447181 0.03791261 0.04571406 -0.00363575 -0.05473818 -0.21677925 0.06625894 0.112891 0.06831369
Medium_distance 0.02435714 0.11037484 -0.06941578 0.01759303 -0.0070839 -0.16511054 0.03864645 -0.16124298 -0.05779132 -0.07935382 0.00766451 -0.02856388 -0.13820438 -0.09553514 -0.10619778 -0.03069046 0.09357609 -0.08922689 -0.00182945 0.09541765 0.06814946 -0.06754948 0.09910263 0.0764536 -0.01537237 0.04685743 0.00987399 -0.01552668 -0.04453158 0.173011 0.01997949 0.14497718 -0.09759851 -0.01820962 0.07927751 -0.07225367 0.01928863 -0.0079642 0.04491156 0.00716096 0.026251 0.00016958 -0.05300196 0.0185388 0.01512952 0.18978812 0.04067931 0.18099336 -0.07721483 0.12630694 0.08648311 0.03592956 0.02818668 0.08772035 -0.01428968 -0.12344911 -0.02813668 0.11324977 0.05883905 0.08663093 -0.0188702 -0.05270056 -0.0081021 0.02070073 0.02015749 -0.0239037 -0.13531563 0.07562945 0.04911972 -0.09769595 0.12541784 0.05820854 -0.08300862 -0.14247102 -0.04098012 -0.03160245 0.03931502 -0.04195792 -0.11099689 -0.03237514 0.10519724 0.08669841 0.06332941 -0.05672346 0.02102495 -0.0143459 -0.01359887 0.07970767 0.07613409 0.03759997 0.14402398 0.01367931 0.03502264 0.04379247 -0.00334769 -0.05032295 -0.19852506 0.06095519 0.10442789 0.06339406
remote 0.02454512 0.11061399 -0.07018899 0.01813594 -0.00728172 -0.16865413 0.04058924 -0.16644345 -0.05929608 -0.08137552 0.00689449 -0.02903602 -0.13992763 -0.09800062 -0.10924802 -0.03090784 0.09354542 -0.0904673 -0.00266626 0.09815851 0.07030241 -0.06800196 0.10009614 0.07809357 -0.01842547 0.04696607 0.00980578 -0.01579034 -0.04345459 0.17667487 0.01903026 0.14919728 -0.10084756 -0.01699568 0.08068417 -0.07240308 0.02069309 -0.0081871 0.04699841 0.00815413 0.02794767 0.00151128 -0.05493551 0.01823512 0.01538423 0.19210416 0.04218594 0.18771185 -0.07873816 0.12913533 0.08976425 0.03615528 0.02872026 0.08980635 -0.01334602 -0.12504992 -0.03112551 0.11568965 0.05984279 0.08817445 -0.01707289 -0.05387554 -0.00640196 0.0214712 0.01921214 -0.02399035 -0.13866898 0.07653981 0.05015626 -0.0993811 0.12847677 0.05853381 -0.08454673 -0.14656016 -0.04119568 -0.03185552 0.04155101 -0.04282154 -0.11229599 -0.03430713 0.10929373 0.08862811 0.06470937 -0.05858442 0.0224045 -0.01451239 -0.01346281 0.08142965 0.07885916 0.03921764 0.14701922 0.01331251 0.03580443 0.04441952 -0.00440506 -0.05120654 -0.20378165 0.06225109 0.10584222 0.06251003
Infinite -0.04318726 0.02020981 -0.08515929 -0.07014212 0.20450869 0.05132976 -0.03875761 0.0505961 0.01994788 -0.04370969 -0.03004872 0.03777123 -0.01877656 0.02080996 -0.01037451 0.04525251 0.10707214 -0.06419301 0.07064489 -0.08747183 -0.12181315 -0.00540922 -0.01446928 -0.00260568 0.06458049 0.0570786 0.10235479 -0.13754459 -0.11526278 -0.13203837 0.06229395 -0.09386694 0.13554339 -0.1127836 0.00730186 -0.0083492 -0.07016544 0.04081868 -0.02552228 -0.02890619 -0.06311455 -0.06992523 0.100056 -0.01785881 -0.01084465 0.04382064 -0.1064015 -0.2078062 0.06704367 0.02570428 -0.1237791 0.06048602 -0.04037709 -0.00812865 -0.05309258 -0.04709566 0.09052049 -0.07669384 0.06821382 -0.05806488 -0.19593285 0.06624357 -0.1415867 -0.01060904 0.11276711 -0.01138462 0.08053073 0.03706327 -0.06166255 0.02542999 -0.06687997 -0.01044291 0.03318285 0.06128436 -0.09389161 -0.02057365 -0.05338981 -0.05151835 0.03539524 0.09325688 -0.18972974 0.00683132 0.01378448 -0.00247639 -0.16946237 -0.03339964 -0.06641959 0.02663096 -0.12284415 -0.06923429 -0.00258579 0.03220629 -0.10059854 -0.0843733 0.12476567 0.05253417 0.03250115 -0.00719577 0.09141781 0.09181939
above 0.05105019 -0.0286155 -0.04738028 0.06066828 -0.16765472 -0.09477697 0.08945091 -0.18600892 -0.03764362 0.02402036 0.09641831 0.00678221 -0.04196749 0.0138324 -0.02424791 -0.10171599 -0.04232739 0.01435682 0.05465637 -0.08659434 0.14655787 -0.01787692 0.0198689 0.13161218 -0.12042552 -0.08110254 -0.00866043 0.14314915 -0.04582749 0.16210838 -0.11715827 0.04303792 -0.17955902 0.09365764 0.03343833 -0.06856929 0.15756118 -0.1310711 -0.01520907 0.06509582 -0.03675076 0.00956683 -0.09875574 0.03842884 -0.02867317 -0.0030391 0.00778814 0.08922985 -0.07373189 0.06593718 0.0923486 -0.03308974 0.06080419 -0.10176174 -0.09454741 0.0518526 -0.04970209 0.03720056 -0.06660098 0.00079593 0.11691967 -0.0701667 0.08976123 0.04502547 -0.06094898 0.06583301 -0.07070904 -0.0417992 0.08310916 -0.09447828 0.03033836 0.04187227 0.15259695 -0.14318544 0.05007564 -0.09550237 0.03217654 0.09074358 -0.07277048 -0.09902192 -0.02346059 0.08481358 0.03664043 0.00999724 0.1339183 0.04717417 0.02062139 0.02691531 0.10505068 0.0724306 -0.12305605 -0.02694578 0.00725 0.12751515 -0.1579273 -0.06740439 -0.09688999 -0.04201229 0.03238796 -0.08618861
Forward 0.04174016 -0.00389938 -0.00732357 0.05809661 -0.18796162 -0.11066707 0.07838017 -0.17316167 -0.03660099 0.01209167 0.070819 -0.01336981 -0.03073037 -0.00551874 -0.03897607 -0.08174865 -0.05117746 0.01437886 0.00582299 0.00913737 0.13948949 -0.02384687 0.02624865 0.10658807 -0.10420453 -0.06566078 -0.04190284 0.12873538 0.02035326 0.16725066 -0.09008894 0.11030646 -0.17386894 0.08604772 0.02776204 -0.04887554 0.12722291 -0.09654654 0.01143676 0.05662774 0.01268048 0.02744349 -0.11479554 0.02887856 -0.01400161 0.01289076 0.05323056 0.16317923 -0.07398264 0.0290173 0.12161663 -0.03315546 0.05883294 -0.03872903 -0.04417108 0.04222514 -0.07059842 0.0722748 -0.04543515 0.03832271 0.1476737 -0.06449112 0.10025727 0.02414032 -0.07009522 0.04018376 -0.08875455 -0.01783852 0.08291422 -0.0874616 0.09000141 0.034748 0.06824468 -0.12807837 0.05541785 -0.0528888 0.04655919 0.06618861 -0.06967762 -0.0896278 0.06514943 0.06900116 0.02493321 -0.00074396 0.14589524 0.03247165 0.03318337 0.020448 0.11749534 0.07942922 -0.07093327 -0.02130395 0.04719569 0.1011462 -0.14875247 -0.06368059 -0.12816665 -0.00507568 0.00979061 -0.08547206
yellow 0.01053709 0.01513936 -0.06113104 0.09477924 0.04088397 0.15196747 0.1101986 -0.07987902 -0.02499783 -0.03172722 0.00045653 -0.09512471 0.14227942 -0.04707655 -0.04490187 0.01439191 -0.10115581 -0.09155044 -0.03245104 0.01726812 -0.01114097 0.07390194 0.08668327 -0.18056394 -0.13668817 -0.09062757 0.01548633 0.02020191 0.11997458 0.01643762 0.09244978 0.03100109 0.0657773 0.09834866 0.03610221 0.01094749 -0.08740214 0.07008087 0.04575632 0.06754713 0.06905031 0.08785804 0.1262478 0.08323277 -0.12372387 -0.15085815 0.10048751 0.12666178 -0.10829146 -0.00043134 0.02829643 -0.02021692 -0.10999369 -0.04461154 0.0792344 0.08030578 -0.13109066 0.01995435 -0.08806553 -0.00062211 0.06318899 -0.02353156 0.11416312 0.06236051 -0.06706692 -0.00356627 -0.01461624 0.17072262 0.00945551 0.14552976 -0.09870312 -0.11187094 -0.05048906 0.06910369 0.07045244 0.05717141 0.12681009 -0.04378154 0.12087537 -0.04005337 0.1688096 -0.01403744 -0.08292817 -0.05896107 0.11876862 0.0462966 0.09240355 0.04513669 -0.01229832 -0.01557264 -0.03533577 0.16541268 0.03178929 -0.1316418 -0.05317965 0.00203318 0.1885611 -0.04798934 0.027495 -0.09683829
greed -0.04222484 -0.0495869 -0.02392595 -0.02577264 0.13019983 0.1983599 -0.00565505 0.03957802 0.03597107 0.01253096 -0.02055986 0.00288747 0.03882198 -0.01803392 0.00427825 0.03810627 0.01333424 -0.07603992 0.04268983 -0.12276319 -0.08795674 0.09316848 0.02394255 -0.1105679 0.01748231 -0.00153872 0.08767759 -0.09484605 0.04704942 -0.1851918 0.10845784 -0.12711151 0.15641487 -0.0427692 -0.00736077 0.04111183 -0.12234748 0.07362907 -0.0142359 -0.0295445 -0.0094371 -0.0100076 0.15363014 0.01624884 -0.04782326 -0.16467021 -0.06028734 -0.07453515 -0.00915443 0.00573041 -0.1310255 0.02565462 -0.08440003 -0.07607573 0.03611797 0.02081907 -0.00783894 -0.05464486 -0.02917795 -0.0719197 -0.10101674 0.03483912 0.01318094 0.03540198 0.04308308 0.00903819 0.09942465 0.06752969 -0.09460844 0.15007657 -0.19829759 -0.12797387 0.06245474 0.09765053 0.03026345 0.00430496 -0.01934175 -0.04254697 0.12300803 0.01596919 0.00137552 -0.0694136 -0.07233877 -0.04657332 -0.09419181 -0.00165509 0.06690105 0.00753955 -0.11854722 -0.09203082 -0.03657316 0.13094915 -0.06650112 -0.10081198 0.09331227 0.0453159 0.22533654 -0.03749885 0.04552431 0.04454662
red 0.0043923 0.00620224 -0.06245136 0.08183754 0.05874638 0.15602632 0.09798703 -0.06384579 -0.01913323 -0.033991 -0.01267245 -0.08806795 0.13994317 -0.04749785 -0.04401354 0.02413283 -0.09466547 -0.08090976 -0.02545846 0.00117053 -0.02653905 0.08219269 0.07419306 -0.18448587 -0.13187592 -0.08107306 0.02614283 0.001701 0.10540897 -0.00134382 0.09231897 0.01144762 0.07976059 0.08763517 0.03151652 0.02259435 -0.09125156 0.07610884 0.04282955 0.06055844 0.06014916 0.0834675 0.13509245 0.07511298 -0.11831392 -0.15627855 0.08102614 0.10376621 -0.09289551 -0.00136599 0.01674453 -0.01503503 -0.11427074 -0.04771206 0.07966524 0.07094308 -0.12039724 0.00483342 -0.08254757 -0.0104224 0.04548247 -0.01448691 0.09724447 0.05915811 -0.05591805 -0.00356005 -0.00563326 0.16150214 -0.00643458 0.15323797 -0.11771519 -0.11656644 -0.03955491 0.07550188 0.05677622 0.05578495 0.11757072 -0.04670856 0.12989688 -0.0329725 0.1149859 -0.02029716 -0.08018456 -0.05686948 0.09288808 0.04296843 0.08128446 0.04071171 -0.02382072 -0.02216832 -0.03181376 0.15856966 0.01614363 -0.14374243 -0.03585479 0.01236793 0.19200516 -0.05163348 0.01763198 -0.08651843
white 0.01318574 0.01478343 -0.05105494 0.09141453 0.01571985 0.11902328 0.10717116 -0.09189428 -0.02674733 -0.02782675 0.0050026 -0.08951417 0.1236893 -0.05143513 -0.04874558 0.006199 -0.09958907 -0.07846607 -0.03623361 0.03217148 0.00858591 0.06081612 0.0819855 -0.15297376 -0.13444267 -0.08836958 0.00489271 0.02934155 0.1198523 0.03373321 0.0777059 0.04918905 0.0373002 0.09352457 0.03379985 0.00619352 -0.06747587 0.05584325 0.04663605 0.06563817 0.0725264 0.08498166 0.09775938 0.07695714 -0.11115176 -0.13227211 0.10369897 0.14228244 -0.1056675 -0.00241292 0.0456269 -0.02294545 -0.09131187 -0.03459351 0.07631212 0.07175935 -0.13078254 0.03334186 -0.08186665 0.01149255 0.08172536 -0.02821701 0.11815347 0.05689591 -0.07107651 -0.00154461 -0.02583299 0.15389276 0.01923991 0.12083083 -0.06989814 -0.09922679 -0.05137233 0.04836109 0.06993375 0.05120944 0.12092332 -0.03384768 0.10086589 -0.04941341 0.16816698 -0.00518584 -0.07399355 -0.05334702 0.126757 0.04455062 0.08918703 0.04342867 0.00306281 -0.00145144 -0.02898193 0.14803334 0.03938174 -0.11056731 -0.06176997 -0.00506897 0.14893644 -0.0368794 0.0179692 -0.09961802
black 0.01212067 0.01644374 -0.0607535 0.0925286 0.03323541 0.13907103 0.10802184 -0.08123264 -0.02575063 -0.0301314 -0.00028563 -0.09376424 0.1342121 -0.05146204 -0.04793476 0.01217442 -0.10118109 -0.0858221 -0.03595065 0.0241447 -0.00225571 0.06793429 0.0846166 -0.17007336 -0.1348729 -0.08679736 0.00938898 0.0222236 0.12008119 0.02092971 0.08669328 0.03723863 0.05210839 0.0908075 0.03514833 0.0101229 -0.08024106 0.06463258 0.04694172 0.06706452 0.07329156 0.0878645 0.11054462 0.07953189 -0.11664822 -0.14343007 0.10064573 0.13062899 -0.10697616 -0.00267557 0.03589828 -0.02153115 -0.10182337 -0.03736604 0.0802195 0.07291838 -0.13267568 0.02541952 -0.08441699 0.00559141 0.07347 -0.02661319 0.11487368 0.06011346 -0.068728 -0.00464908 -0.01723211 0.16312689 0.01265637 0.13422993 -0.08528953 -0.10671532 -0.0524811 0.06158456 0.06692822 0.0554886 0.12507863 -0.03953498 0.11046272 -0.04406226 0.16667196 -0.00973457 -0.07945088 -0.05662453 0.12192129 0.04398915 0.09015018 0.04177795 -0.00901408 -0.00961054 -0.03167813 0.15783256 0.03104046 -0.12682332 -0.05724824 -0.00194815 0.17407727 -0.0420989 0.020144 -0.09843443
blue 0.00196158 0.01347276 -0.09431702 0.08732207 0.09474623 0.17163569 0.08596885 -0.02199209 -0.01535065 -0.03910689 -0.02216164 -0.09347852 0.1527681 -0.05045104 -0.02100457 0.03338187 -0.07959086 -0.09360089 -0.01635374 -0.02097439 -0.06068243 0.07517956 0.08196627 -0.2018483 -0.11424664 -0.06429951 0.03242003 -0.01807584 0.08052614 -0.01381802 0.11074247 -0.01890923 0.12709156 0.08544712 0.03171922 0.02610503 -0.12126717 0.08401474 0.03377334 0.06154506 0.05381012 0.08227582 0.13458046 0.07955312 -0.1265684 -0.16338252 0.08241288 0.05274736 -0.09599919 0.00670709 -0.01627975 -0.01104324 -0.13000439 -0.05014764 0.06842139 0.06158839 -0.1132239 -0.01195001 -0.07560586 -0.01797515 -0.00479115 -0.00558031 0.08519647 0.07086463 -0.04034877 -0.00942375 0.02869813 0.17683646 -0.01644682 0.16251954 -0.12214135 -0.11989539 -0.03665677 0.11304136 0.05682167 0.05515896 0.12007452 -0.05445381 0.13853453 -0.00667251 0.13504407 -0.02858831 -0.08998669 -0.06319085 0.0931208 0.03673168 0.06339697 0.04556758 -0.06358516 -0.0407693 -0.04352022 0.17433302 0.00689765 -0.16704443 -0.00381548 0.02695018 0.23217127 -0.05778608 0.02080053 -0.07963739
plane -0.08148184 -0.04889007 0.09026609 0.04909276 -0.17014858 -0.08869545 0.05249093 -0.05930657 -0.01804634 -0.02364821 0.04962745 0.05869434 0.12667616 -0.00549756 0.04001788 -0.07118743 -0.13354011 0.07534855 -0.00964053 0.08929843 0.040709 0.10111235 0.04420085 0.02791444 -0.1252781 -0.04779283 -0.00541611 -0.04590434 0.11589557 0.03006299 0.00364985 0.1389786 -0.1708653 0.08708299 -0.03120184 0.00350425 0.07207216 -0.00767004 0.04572246 0.02464501 0.02510187 -0.01772571 -0.11866417 -0.02209535 -0.00440417 -0.02985041 0.02355298 0.0648602 0.08402023 -0.02102482 0.07642779 -0.02419308 0.04020777 -0.08357791 0.05052759 0.12963316 -0.02106004 0.05903379 -0.00493497 0.02115857 0.15922956 0.05425964 0.04511978 -0.1078173 -0.02477883 0.06480006 -0.06406354 0.02236527 0.03586407 -0.05826323 0.14360467 -0.03679164 -0.01389364 -0.01674953 0.09837635 0.0210799 0.03580166 -0.0314831 0.11146631 -0.14452955 0.09144019 0.07583084 0.00767782 -0.01540567 0.01911545 0.04649124 0.05131793 0.11263724 0.10182808 0.03584599 0.0266669 -0.06775213 0.07108665 0.09946463 -0.05824785 0.07086356 -0.11903408 0.01430921 0.02558648 -0.14741963
three_dimensional -0.02760197 -0.01823967 0.08391994 0.0606644 -0.21395987 -0.12386522 0.06742667 -0.1297215 -0.02930036 -0.00849534 0.06037639 0.01810043 0.07085914 -0.0141429 -0.00444637 -0.07745474 -0.11501455 0.05479633 -0.03620436 0.12714301 0.10979153 0.03849485 0.0460683 0.06431806 -0.11553463 -0.06194451 -0.046475 0.04004085 0.11918437 0.12088175 -0.02375523 0.18435629 -0.20030351 0.09112061 -0.00761444 -0.0191132 0.08892261 -0.03649984 0.04397465 0.03546208 0.05194424 0.01293371 -0.13975248 0.00164123 -0.00691764 0.00662257 0.07788639 0.1836401 0.00695205 -0.02110449 0.12915285 -0.03489258 0.05960795 -0.03190234 0.04426928 0.09946927 -0.06424665 0.09909787 -0.01871304 0.06172559 0.1998224 -0.00579651 0.09751546 -0.07256232 -0.06575836 0.04359287 -0.10280009 0.02237417 0.07423676 -0.07817315 0.17301966 -0.00322865 -0.03541864 -0.07138133 0.09357402 0.01113624 0.05604356 0.00614266 0.04138319 -0.13863909 0.14920667 0.07292265 0.00739004 -0.00885031 0.10222323 0.03970789 0.06340084 0.08419696 0.13206188 0.0663858 0.01849979 -0.04641333 0.0900676 0.10980423 -0.11625289 0.00628228 -0.16379233 0.03008053 0.01151954 -0.13970238
suburbs 0.01356726 -0.1119976 0.17144819 -0.05514379 -0.04843625 -0.09496788 0.05433941 -0.15210369 -0.00459835 0.05794901 -0.0222999 0.00954029 -0.03206342 -0.08654422 -0.11150055 0.07448774 -0.08816514 0.01598065 -0.08022479 0.12849057 0.14571407 -0.08208641 -0.08507444 0.09275553 -0.08142603 -0.09884953 -0.04556951 0.1196681 0.10310993 -0.03151498 -0.10934428 0.10925935 -0.17989314 -0.08340132 -0.0374094 0.0217343 0.08632442 -0.06703727 0.05991404 -0.00632095 0.1123016 0.08837519 -0.12914503 -0.00515117 -0.01337688 -0.01498784 0.06866905 0.16161436 0.00318177 -0.01138138 0.17215598 -0.02625324 0.09923191 0.09225517 0.04505099 -0.08708405 -0.12106127 0.1009092 0.02641929 0.03161722 0.17584218 -0.02172351 0.16609325 0.0185905 -0.11833981 0.03097609 -0.03923053 -0.0210915 0.07641836 -0.01547848 0.09900352 -0.05180727 0.01974088 -0.08567795 -0.05149858 0.03839991 0.02895177 0.07404524 -0.0206057 -0.10103605 -0.01927716 0.06373623 0.01063721 0.04281985 0.08285093 0.0537226 0.03642662 -0.01910365 0.0375134 0.12502095 0.06841924 0.00865046 0.02362879 0.05115647 -0.08303676 -0.01586392 -0.18286462 0.07769722 -0.10934383 -0.12262522
city 0.01377312 -0.10582671 0.16649571 -0.0509474 -0.05292791 -0.09490799 0.05591686 -0.15317294 -0.00545766 0.05626712 -0.02050507 0.00727961 -0.02974841 -0.08684228 -0.11061258 0.07208096 -0.08854973 0.0136651 -0.07908321 0.12922947 0.14477834 -0.08020002 -0.08051468 0.09091031 -0.08256303 -0.09860837 -0.04544442 0.11857013 0.10334183 -0.02200456 -0.10679487 0.1136827 -0.17952588 -0.07941695 -0.03550834 0.02097849 0.08545557 -0.06596796 0.06056868 -0.00445623 0.11257917 0.08863994 -0.12734766 -0.00321592 -0.01404026 -0.01430039 0.07103359 0.16763245 0.00063795 -0.0110115 0.17125434 -0.02601486 0.09728165 0.09123638 0.04426406 -0.08281849 -0.12013674 0.10165904 0.02452361 0.03302662 0.1759486 -0.02224201 0.1648589 0.01779609 -0.11701164 0.03078283 -0.0405329 -0.01743932 0.07683016 -0.01682947 0.09993115 -0.05175716 0.01697542 -0.08491229 -0.04653777 0.03839194 0.03057171 0.07147819 -0.02003867 -0.10104916 -0.01216515 0.06429112 0.01014941 0.0402796 0.08549232 0.05355581 0.037263 -0.0178135 0.03888941 0.12440803 0.06688904 0.00992304 0.02634323 0.04965028 -0.08408775 -0.01660414 -0.1813267 0.076328 -0.10556779 -0.1226712
high_speed 0.00725795 -0.12127361 0.16961312 -0.0686245 -0.01824272 -0.07335874 0.04572953 -0.1297851 0.00248679 0.06146726 -0.03270894 0.01708443 -0.02927863 -0.08843216 -0.10927866 0.08925088 -0.08312378 0.01334196 -0.07433462 0.10774681 0.12856019 -0.07855263 -0.09508086 0.08346964 -0.07464006 -0.09511578 -0.03152725 0.1037112 0.09080447 -0.06119849 -0.10607573 0.07806031 -0.16111422 -0.09811336 -0.04455885 0.02938072 0.07639898 -0.06241008 0.05727876 -0.01463736 0.10674663 0.08554082 -0.11185938 -0.00894905 -0.01445436 -0.0253543 0.04990886 0.12000427 0.01918057 -0.00709538 0.15547498 -0.02008136 0.0942242 0.08891872 0.04227983 -0.09561881 -0.11036975 0.08485833 0.03288477 0.01642349 0.15095818 -0.01052965 0.15446618 0.02037519 -0.10934404 0.03225364 -0.01854917 -0.02447233 0.06319237 -0.00122068 0.07130776 -0.0627611 0.03427909 -0.06871864 -0.06247157 0.04059587 0.01819345 0.07004566 -0.00720248 -0.09289749 -0.0458095 0.06047518 0.01030239 0.04609109 0.05577729 0.05464242 0.02830354 -0.02343915 0.01437155 0.11739786 0.07136735 0.01191122 0.00759806 0.03853565 -0.05932866 -0.00363438 -0.16172765 0.07511414 -0.11230613 -0.1148809
one -0.04909977 -0.05203249 0.12904741 -0.04573841 -0.01701686 0.00807077 0.09520181 0.07960293 -0.06118196 -0.00743105 0.03960768 0.03629086 0.01556994 -0.11788031 -0.01715531 0.10563999 0.12555541 0.08010627 -0.01471953 -0.01937259 -0.13120617 -0.03967589 -0.02295488 0.00116453 0.02944409 0.04611923 0.10128955 -0.13717484 0.11189321 -0.19933257 0.00521967 -0.12204461 0.06001911 -0.00301022 0.00681869 -0.03756915 0.02952026 0.06284554 0.07684775 -0.00533332 -0.09517116 0.05670064 0.08497883 0.02504559 0.00798812 -0.05375387 0.07094635 -0.16459502 0.04356968 0.02475581 -0.12135691 0.03970528 -0.06356009 -0.0299276 0.02604242 0.09175889 0.14091142 -0.0642009 -0.01597604 0.04650841 -0.16474809 0.10633083 -0.09585944 0.14965901 0.00965849 0.04174605 0.13160218 -0.11428628 -0.05631655 0.01221196 -0.09529731 -0.09148784 0.05095302 0.00999916 0.13138476 -0.06528688 -0.0763891 -0.10148526 0.03945836 0.11444812 0.12794666 -0.06472505 0.05142051 0.00032538 -0.0033149 -0.00392015 -0.03000265 -0.04665808 -0.00019456 0.06764645 -0.02446987 -0.04657066 0.05158954 0.14831492 0.2683845 0.0597893 0.05933211 -0.01038365 -0.1486546 0.0473103
two -0.05141437 -0.01842033 -0.05276895 -0.05888016 0.13941735 0.11745002 -0.0575854 0.08861094 0.01896918 -0.00123386 -0.06616299 0.0301052 0.05832658 -0.04717484 0.03336629 0.0635565 0.05228647 -0.02294945 0.06725295 -0.12577106 -0.11715788 0.03640202 0.00061921 -0.06918182 0.02445202 0.06879207 0.05999503 -0.10389668 -0.04139176 -0.16546667 0.06109879 -0.17273155 0.0965746 -0.07811873 -0.01791961 0.05489934 -0.07955216 0.02531487 -0.0243749 -0.04207534 -0.05426196 -0.03647318 0.07596944 -0.0223483 -0.00915016 -0.04398209 -0.1037837 -0.23116925 0.05844915 0.03846825 -0.12312061 0.03911681 -0.04760876 -0.03974261 -0.04236068 -0.02089294 0.0783078 -0.09479471 0.03388091 -0.07606488 -0.10555258 0.07114796 -0.09750285 0.00245855 0.07790795 0.00040692 0.09815569 -0.05475648 -0.08180951 0.06562406 -0.16135155 -0.02051008 0.04109004 0.10085463 -0.05340503 0.02300281 -0.0647481 -0.04615676 0.07891715 0.06709839 -0.15880169 -0.03355144 0.00686705 -0.02044129 -0.15010288 -0.01374635 -0.04142144 -0.0156594 -0.12462152 -0.00790111 0.02285221 -0.0141417 -0.08393326 -0.0239896 0.13105793 0.06532625 0.10316206 -0.03759755 -0.02678358 0.06095636
morning 0.04565864 0.12393975 -0.10037002 0.09133094 -0.16630368 -0.11318443 0.00604943 0.01285772 0.03938846 0.11574659 0.16373183 -0.08684682 0.03206855 0.02451995 0.08779242 -0.0869821 -0.06657377 -0.08022798 -0.02215992 0.15269881 0.05468605 -0.11062766 0.08264264 0.09449103 0.10659131 -0.08805222 -0.10018101 0.08359304 0.04814609 0.1404908 0.04250409 0.18356505 -0.11994984 -0.03321219 -0.00839974 -0.10557429 -0.01376511 -0.05068939 -0.05293278 0.00979499 0.05008311 -0.03988836 -0.00179139 0.09002071 0.00900537 0.05677662 0.15581952 0.1700989 -0.05919641 -0.12518644 0.04261945 -0.02209961 0.10967164 0.03842161 -0.09496374 -0.01073751 0.07108358 0.1293628 -0.05928982 0.10874666 0.19025898 -0.04808454 0.05347757 -0.1454251 -0.02983386 -0.0181677 -0.00238013 0.07642453 0.14292586 -0.12945062 0.11410832 0.05957311 -0.10978981 0.04796881 0.06663252 0.03746325 -0.04743167 0.00831926 -0.09856988 -0.02725428 -0.01974277 0.05184219 -0.04857774 0.02966956 0.1030236 0.02913748 0.07318351 -0.0166524 -0.00306814 0.04512565 -0.09880269 0.00919459 0.09200887 0.02576702 -0.11662041 -0.0961868 -0.04848474 0.06161699 0.07562416 -0.03693367
noon 0.04452221 0.12161251 -0.09736205 0.08895767 -0.16451795 -0.11157324 0.00459051 0.01479157 0.03875117 0.11402894 0.15876362 -0.08568793 0.03214605 0.02405266 0.0864436 -0.08452376 -0.06573366 -0.07766666 -0.02195773 0.15099402 0.05296061 -0.10823251 0.07966217 0.09298115 0.10588957 -0.0851329 -0.09910195 0.08205313 0.04734337 0.13689654 0.03962467 0.17994414 -0.11681343 -0.03293699 -0.00876737 -0.10170946 -0.01264743 -0.04974892 -0.05076633 0.00986884 0.04969138 -0.03917969 -0.00316449 0.08736058 0.0105597 0.05508939 0.15241706 0.1652682 -0.05697627 -0.12398171 0.04226269 -0.02144031 0.10752071 0.03887395 -0.09376559 -0.01149624 0.07068612 0.12634604 -0.05779016 0.10633178 0.18542601 -0.04683226 0.05125881 -0.14398284 -0.02856386 -0.01818672 -0.00061174 0.07413247 0.13972992 -0.1281936 0.11214722 0.05822236 -0.10823688 0.04731688 0.06485902 0.03727852 -0.04787229 0.00778144 -0.09724394 -0.02525374 -0.0204904 0.0509155 -0.04723229 0.02839497 0.10028508 0.02788244 0.07060091 -0.01849705 -0.00229307 0.04537029 -0.09816247 0.00766747 0.08979333 0.02375551 -0.11486731 -0.09451114 -0.04884534 0.06055392 0.0722893 -0.03578022
afternoon 0.04565624 0.12772626 -0.10294728 0.09235659 -0.1706444 -0.1158685 0.00564653 0.01528414 0.0396179 0.11649907 0.1647047 -0.08975749 0.03340881 0.0236176 0.0885467 -0.0875468 -0.06781807 -0.08271565 -0.02210551 0.15697284 0.05403504 -0.11175834 0.08391058 0.09609362 0.11027022 -0.08767974 -0.10189512 0.08433895 0.04860179 0.14201905 0.04114102 0.18676381 -0.12114517 -0.03416395 -0.00819093 -0.10556624 -0.01327376 -0.05125954 -0.05176096 0.01092846 0.05185493 -0.03991237 -0.00271871 0.09113844 0.01107362 0.05721782 0.15809767 0.17176142 -0.05966405 -0.12694848 0.04384589 -0.02146078 0.11104717 0.04064054 -0.09879514 -0.01321357 0.07393419 0.13158768 -0.05938327 0.11003132 0.19130868 -0.04856948 0.05211407 -0.1486939 -0.02867462 -0.0188296 0.00016558 0.07776026 0.14493744 -0.13316256 0.11508835 0.05977603 -0.11244787 0.04905401 0.06692366 0.03884535 -0.04962999 0.00659813 -0.10112935 -0.02578637 -0.02171677 0.05400574 -0.0483407 0.02803129 0.10413239 0.02915173 0.07253275 -0.01901625 -0.00251327 0.04752511 -0.1021903 0.00844058 0.09276716 0.02277078 -0.11882771 -0.09800164 -0.05094396 0.06297034 0.07574321 -0.0365003
night 0.04347454 0.12014926 -0.09558898 0.08727144 -0.16309822 -0.111788 0.00602028 0.01064202 0.0364686 0.10910675 0.1548234 -0.08424822 0.03004468 0.0217824 0.08253381 -0.08293558 -0.0641605 -0.07679309 -0.0221897 0.15017208 0.05369955 -0.1069378 0.07902958 0.09191652 0.1016096 -0.08308921 -0.09714564 0.08098884 0.04735655 0.13681628 0.03849376 0.17921233 -0.11686521 -0.03091928 -0.00730629 -0.09973472 -0.01146579 -0.04899429 -0.04803622 0.01045743 0.04993129 -0.0369437 -0.00480588 0.08546656 0.01046291 0.05543091 0.15057795 0.16623989 -0.05735846 -0.11890776 0.04381496 -0.02085045 0.10573827 0.03950087 -0.09181909 -0.01172915 0.06721646 0.12572613 -0.05560277 0.10470812 0.18299773 -0.04673123 0.05136455 -0.14042725 -0.02875356 -0.01783735 -0.00272478 0.07328685 0.13785227 -0.12643732 0.11198431 0.05704467 -0.10710584 0.0439323 0.06350132 0.03630926 -0.04516427 0.00725757 -0.09631129 -0.02617284 -0.01688896 0.051296 -0.04513862 0.0263959 0.10038093 0.02743314 0.06905517 -0.01686251 3.134e-05 0.04578385 -0.09413701 0.00750859 0.08877213 0.02381105 -0.11381238 -0.09279153 -0.05095836 0.06025792 0.07136854 -0.03550491
animals 0.00577983 -0.02381476 0.01328759 -0.02122374 0.07357172 0.04036678 -0.03282274 0.05395365 0.01044717 0.00393897 -0.00108326 0.03399156 -0.03181347 0.04357934 0.02687261 -0.00367999 0.04134212 0.03135839 0.00873455 -0.06788579 -0.02500512 -0.00960231 -0.02532325 -0.01523289 0.04459321 0.01174581 0.01991628 -0.01840581 -0.04118009 -0.02532797 0.02836594 -0.06748638 0.06181033 -0.01438741 -0.01186734 -0.00871814 -0.02903705 0.00812871 -0.04116833 -0.03296673 -0.04195343 -0.02434049 0.02982028 -0.01802042 -0.00986054 0.02379408 -0.03522848 -0.06919149 0.01632063 0.00450997 -0.05143829 -0.00442011 -0.01865041 -0.02341017 0.02192324 0.01588396 0.01363706 -0.04085901 0.00374125 -0.02138439 -0.04185744 0.00987916 -0.02339591 0.01495201 0.01010666 -0.00769582 -0.00419987 -0.0290546 -0.02709566 0.03432867 -0.02537779 0.02952309 0.02341923 0.02243689 -0.01792805 -0.01656837 -0.0088044 0.02900435 0.01240044 0.02086306 -0.02755939 -0.04337552 -0.00638613 0.03765443 -0.04350216 -0.01264726 -0.00033186 0.00858806 -0.03109597 -0.05553517 0.02629869 -0.00079512 -0.01834519 0.02440073 0.04188679 0.01927882 0.06957768 -0.01892032 0.00017813 0.03757388
vehicle 0.01850677 -0.02698533 0.03752464 -0.01308346 0.05727311 0.02151281 -0.02755992 0.0358657 0.00448186 0.00688156 0.01195086 0.03412046 -0.05103394 0.05441551 0.02084471 -0.02395571 0.04093527 0.04852216 -0.00662608 -0.05457341 0.01292396 -0.02487683 -0.02714333 0.00040461 0.04169787 9.22e-05 0.00206046 0.0127373 -0.02860852 0.01831377 0.02504867 -0.04269098 0.04687639 0.00096443 -0.01004126 -0.02133306 -0.01915134 -0.00136667 -0.04444653 -0.03283523 -0.03651769 -0.01850334 0.01114285 -0.01833312 -0.01463695 0.04143053 -0.01656306 -0.0263303 -0.00276706 -9.458e-05 -0.02826904 -0.01731041 -0.00955776 -0.01699986 0.03896992 0.03365447 -0.00987336 -0.0262351 -0.00373093 -0.00580979 -0.00488926 -0.00607943 0.0022041 0.02105873 -0.01392219 -0.00973618 -0.03821245 -0.03730267 -0.01132931 0.02603392 0.0146567 0.04970518 0.01479374 -0.00194579 -0.00674249 -0.02176131 0.0077277 0.04874041 -0.00255932 0.00702308 0.01479127 -0.04743145 -0.00844158 0.05117935 -0.00951988 -0.01341066 0.01801036 0.01598112 -0.00785809 -0.05098426 0.03365447 -0.00140095 0.00474187 0.05566358 0.01380792 0.00660798 0.05513536 -0.01370066 -0.00483333 0.02970359
humanity -0.00430124 -0.02091931 -0.00842178 -0.02966075 0.08964784 0.0520109 -0.03584916 0.06376787 0.01545655 0.00163177 -0.00889827 0.02996874 -0.02330537 0.02485157 0.02677651 0.0175098 0.04103525 0.01534879 0.02129237 -0.07406659 -0.04290451 0.00302858 -0.02363366 -0.01964907 0.0438243 0.01836771 0.03243972 -0.03888762 -0.05086719 -0.06155054 0.02634113 -0.08231963 0.06523262 -0.02872984 -0.01262973 0.00139315 -0.0346375 0.01343011 -0.03066733 -0.03031362 -0.03898469 -0.02607617 0.04667709 -0.0152716 -0.00387777 0.00794535 -0.04894886 -0.09805279 0.03151849 0.01130648 -0.06555922 0.00963882 -0.0214836 -0.02168248 0.00425149 -0.01185709 0.03260454 -0.04812782 0.0117284 -0.03190732 -0.07014987 0.02202429 -0.04268346 0.00685085 0.02986895 -0.0041893 0.02433237 -0.02193926 -0.03620691 0.03498643 -0.05080655 0.0108346 0.03086629 0.03786647 -0.03048672 -0.01102743 -0.02503778 0.00515145 0.01973705 0.02733204 -0.0722324 -0.03049742 -0.00275368 0.02470735 -0.07020984 -0.00811846 -0.01594657 0.00330035 -0.05125345 -0.04899548 0.02393276 0.00204166 -0.03581409 -0.00586453 0.06139329 0.02704015 0.07414667 -0.01738483 0.00571981 0.04126177
Roadblock 0.00190607 -0.02246627 0.01327847 -0.02319631 0.08748624 0.04927608 -0.03245255 0.05770704 0.01424198 0.00577606 -0.00275019 0.03013761 -0.0264011 0.03718014 0.02637485 -0.00023392 0.04147183 0.01850312 0.01310706 -0.07118018 -0.02912744 -0.0064336 -0.02237699 -0.02235589 0.0434404 0.00777273 0.02736682 -0.0287592 -0.04235256 -0.03767632 0.03709144 -0.07393587 0.06749387 -0.02144393 -0.01215468 -0.00716331 -0.03994085 0.01321228 -0.04177954 -0.03526954 -0.03984548 -0.02393775 0.0453897 -0.01259966 -0.01516904 0.01433224 -0.0361913 -0.07630313 0.01873048 0.00585987 -0.0597914 0.00120064 -0.02180277 -0.0242957 0.02150448 0.01199742 0.01927248 -0.04150751 0.00401447 -0.02444587 -0.05180643 0.0129157 -0.0237265 0.01307045 0.01543724 -0.00757044 0.00326293 -0.01572252 -0.02970733 0.04136799 -0.03740862 0.02204947 0.02492843 0.02872028 -0.02048742 -0.01264348 -0.01348578 0.01924179 0.0222094 0.02062144 -0.02692152 -0.04245265 -0.0099281 0.03431317 -0.05144625 -0.00910101 0.00380644 0.01272994 -0.04537203 -0.05656608 0.02609119 0.00895874 -0.0248504 0.01240372 0.0527791 0.0231438 0.0756109 -0.01795257 0.00561847 0.04029675
goods 0.01041353 -0.03064215 0.03038734 -0.01837195 0.07363969 0.03672238 -0.02826498 0.04015978 0.00844694 0.00640597 0.00623658 0.03528814 -0.04337208 0.04926493 0.0223019 -0.01408716 0.03987789 0.042038 0.00222477 -0.06453579 -0.00332025 -0.01742176 -0.02531414 -0.00829415 0.03977123 0.00140908 0.01555436 -0.00362229 -0.0336774 0.00017152 0.02899716 -0.05766818 0.05459054 -0.00773917 -0.01192529 -0.01645683 -0.02685115 0.00365399 -0.04299839 -0.03399554 -0.03856229 -0.02095447 0.02488718 -0.01656878 -0.01794116 0.03258481 -0.02503817 -0.04432857 0.00666883 0.00493722 -0.04019876 -0.01057975 -0.0153304 -0.02380836 0.03133946 0.02543262 -0.00154091 -0.03298777 -0.00077318 -0.01469813 -0.0231926 0.00305708 -0.00469354 0.02018233 -0.00386003 -0.0068768 -0.02522171 -0.02995364 -0.01940634 0.03503457 -0.00298962 0.03650539 0.02271108 0.01084592 -0.01329189 -0.01904866 0.00163116 0.03766153 0.01126368 0.01018283 -0.00414447 -0.0430147 -0.00915269 0.04662136 -0.02828784 -0.01016496 0.01330558 0.01903917 -0.02407199 -0.05306679 0.03329612 0.00425468 -0.00903581 0.04103232 0.02970082 0.01580219 0.06629211 -0.01667528 0.00160203 0.03070078
Road_ancillary_facilities 0.00974012 -0.02919214 0.02253286 -0.01606617 0.06697626 0.03921313 -0.02840873 0.04150967 0.00957141 0.00776865 0.00620761 0.03559498 -0.03916931 0.05056214 0.02659186 -0.0115489 0.03857799 0.03812037 0.00374026 -0.06556083 -0.01057668 -0.01493439 -0.02522629 -0.01111514 0.03965372 0.00209073 0.01624595 -0.00888958 -0.03324287 -0.01949213 0.03142056 -0.0593879 0.05666539 -0.00757448 -0.01234036 -0.01747062 -0.02812699 0.00466344 -0.04511218 -0.03387951 -0.04052146 -0.02219594 0.02829489 -0.01527714 -0.01680935 0.01931202 -0.02660918 -0.0530839 0.00938947 0.00077316 -0.04466491 -0.01015189 -0.01646772 -0.02655419 0.02848112 0.0300378 0.00067114 -0.03457703 -0.00284673 -0.01686701 -0.02941179 0.0047949 -0.00788903 0.01762115 -0.0012979 -0.00679 -0.01784947 -0.0291515 -0.01994936 0.03473264 -0.00643671 0.03729652 0.02313849 0.01379621 -0.01130377 -0.01831509 -0.00126695 0.03724661 0.0128791 0.01047661 -0.00754414 -0.04572692 -0.01089292 0.04519513 -0.03240321 -0.00916945 0.01109438 0.01610887 -0.02610125 -0.05560491 0.03107168 0.00273382 -0.00890314 0.03733965 0.03360918 0.01620029 0.06751362 -0.01825646 0.00168223 0.03065814
traffic_sign 0.01817502 -0.02450719 0.03554399 -0.00684581 0.04309769 0.01248227 -0.01781976 0.01392694 0.00177783 0.00762015 0.01912609 0.02968725 -0.04547108 0.04510462 0.01586893 -0.02556777 0.03272373 0.0416237 -0.00791955 -0.04495515 0.02082702 -0.02643556 -0.01956649 0.00607371 0.03127258 -0.00927922 0.00159619 0.0177007 -0.01893663 0.02697605 0.02443671 -0.02749726 0.02970794 0.00453809 -0.00799075 -0.02603411 -0.01461175 -0.00486552 -0.03907919 -0.02864094 -0.03039919 -0.01404953 0.00500971 -0.01258789 -0.01891971 0.03910989 -0.00438474 -0.00307133 -0.00794582 0.00044587 -0.01621816 -0.01737191 -0.00542639 -0.01667997 0.03668479 0.03396905 -0.01665932 -0.01404697 -0.00655236 0.00034259 0.00902262 -0.00834017 0.01614981 0.01924724 -0.01958247 -0.00699531 -0.04348968 -0.02794362 -0.00200565 0.02263366 0.02373665 0.04384241 0.01211066 -0.0087961 -0.00088283 -0.01941198 0.01249385 0.0458272 -0.0025298 -0.00458444 0.0228478 -0.03907217 -0.00858462 0.0464592 0.00151047 -0.00803603 0.02327665 0.02247745 -0.00110092 -0.04356289 0.03456595 0.00223601 0.0093737 0.05787567 0.00648616 0.00385083 0.04409948 -0.01057066 -0.00048489 0.01815856
person -0.01682412 -0.01027804 -0.02546912 -0.02936783 0.08453886 0.05138729 -0.0318706 0.06926627 0.01694962 -0.00070924 -0.02230519 0.01736349 0.00354929 0.00590327 0.02254645 0.02992693 0.02774442 -0.00889816 0.0272871 -0.06009146 -0.06186502 0.01708125 -0.01603214 -0.02778335 0.03119213 0.02648829 0.03559861 -0.05477652 -0.04788594 -0.08097132 0.01671483 -0.08115424 0.06247717 -0.03676803 -0.01020334 0.01539018 -0.03216605 0.01835386 -0.0137461 -0.01944488 -0.0297751 -0.02270013 0.05215199 -0.01055954 0.00577264 -0.01060972 -0.05239377 -0.11030773 0.04012592 0.00994157 -0.06744903 0.01929529 -0.02161066 -0.01670018 -0.01815402 -0.02528439 0.04835182 -0.04833103 0.01595055 -0.03604949 -0.08259001 0.02911869 -0.05737274 -0.00134597 0.04288615 -0.00187641 0.05355902 -0.00950086 -0.04004703 0.02725068 -0.070434 -0.01340347 0.02663918 0.04589699 -0.03241226 -0.00076666 -0.03482522 -0.02211235 0.02584481 0.03567564 -0.08337385 -0.01336737 0.00145584 0.00075531 -0.07787758 -0.00606332 -0.02982754 -0.00935444 -0.05621091 -0.03289007 0.0035247 0.00018306 -0.04360889 -0.03263623 0.06687143 0.02765041 0.0586873 -0.01438525 0.00493295 0.03885654
children -0.02261124 -0.01000295 -0.03667931 -0.03510617 0.11162686 0.07451444 -0.04204959 0.08784379 0.0218026 -0.00519128 -0.02916311 0.02670318 0.00355967 0.00912086 0.0335292 0.04099651 0.03736336 -0.0069048 0.0367457 -0.08251849 -0.08056138 0.02665534 -0.01839946 -0.0415378 0.04732549 0.03435554 0.0471839 -0.07395791 -0.06186982 -0.10858604 0.02826916 -0.10954253 0.08797966 -0.04412866 -0.01390858 0.01682346 -0.0459775 0.02660446 -0.02182783 -0.02600384 -0.03691082 -0.0299004 0.06841857 -0.01322151 0.00487063 -0.0132362 -0.06825819 -0.14679897 0.05214874 0.01186342 -0.09087448 0.02475092 -0.03299051 -0.02488778 -0.01361161 -0.02782435 0.06160961 -0.06519128 0.02001353 -0.04786903 -0.11168563 0.03869679 -0.07325626 -0.00203019 0.05615794 -0.00182159 0.0665222 -0.00646198 -0.05369417 0.03695213 -0.09018525 -0.02043325 0.03634743 0.06301265 -0.04367936 -0.00253829 -0.04138908 -0.02936362 0.03644883 0.04794353 -0.09901617 -0.01861121 -2.647e-05 0.00185257 -0.10428148 -0.00752329 -0.03550283 -0.01044431 -0.07555414 -0.04718632 0.00587385 0.00229616 -0.0573956 -0.0461333 0.09171579 0.04005621 0.09010252 -0.02201384 0.00544919 0.04837423
old -0.0204064 -0.0122546 -0.02962987 -0.03584245 0.10553741 0.06403975 -0.03860256 0.08131009 0.0192153 -0.0051143 -0.02679121 0.02385759 0.00653993 0.0101612 0.02631714 0.0357299 0.03428976 -0.00601127 0.03425277 -0.07748991 -0.07442958 0.02578224 -0.01694788 -0.03241203 0.0378462 0.02955285 0.04384427 -0.06714968 -0.05911167 -0.09825996 0.0230679 -0.09908204 0.08019181 -0.03913745 -0.01199038 0.01573618 -0.03892573 0.02186447 -0.01548032 -0.02372817 -0.03872788 -0.02810133 0.05843342 -0.01368461 0.00537492 -0.01017619 -0.06541361 -0.13130045 0.04912153 0.01772802 -0.08353458 0.02270842 -0.02646623 -0.02220861 -0.02210792 -0.02579367 0.0556937 -0.05975166 0.01883558 -0.04460861 -0.0996991 0.03572162 -0.06977146 0.00014402 0.05203364 -0.00066113 0.06204746 -0.01308359 -0.05066384 0.03650872 -0.08547077 -0.01623526 0.03485207 0.05492126 -0.03788251 -0.00342965 -0.03978792 -0.02613846 0.03749469 0.03788233 -0.10700829 -0.01979066 0.00234358 0.00162195 -0.09574083 -0.00673489 -0.03604776 -0.00629108 -0.06715483 -0.04179229 0.00507115 -0.00169423 -0.05333028 -0.03584393 0.08197967 0.03553501 0.06946298 -0.01959243 0.00784797 0.04760557
car -0.01720691 -0.01178604 -0.01955376 -0.02659437 0.0797732 0.05077769 -0.02882495 0.06613439 0.01571932 -0.00281764 -0.02365416 0.01727204 0.00797821 0.0058994 0.02106636 0.02839871 0.02369078 -0.00768291 0.02627656 -0.05731275 -0.06010375 0.02035587 -0.01390592 -0.03081754 0.02686643 0.0248792 0.03537934 -0.05389106 -0.04268998 -0.07761246 0.01681859 -0.07802254 0.06039249 -0.03107456 -0.00964591 0.01593634 -0.03166944 0.01934206 -0.01183562 -0.01773401 -0.02813073 -0.02092168 0.05032152 -0.01003467 0.00363254 -0.01647733 -0.05002236 -0.10529811 0.03836974 0.00970474 -0.06516995 0.01810249 -0.02355559 -0.01811759 -0.0149276 -0.02088626 0.04372405 -0.04727365 0.01383283 -0.03525565 -0.07688262 0.02856881 -0.05364453 0.00047649 0.04029694 -0.00114238 0.05018477 -0.00747754 -0.03976443 0.02921116 -0.06893447 -0.01617214 0.02490514 0.04526876 -0.02848337 0.00010893 -0.0305546 -0.02184138 0.02970291 0.03324204 -0.07393284 -0.01284512 0.00023033 -0.00049052 -0.07327553 -0.00503508 -0.02698123 -0.00779067 -0.05341822 -0.03284212 0.00052458 0.00087332 -0.04146662 -0.03266183 0.06420809 0.02845563 0.05639593 -0.01544882 0.00238538 0.03563665
truck -0.01750541 -0.00823758 -0.02466498 -0.02665761 0.0773786 0.05074489 -0.02920972 0.06781011 0.01526218 -0.00336293 -0.02465662 0.01417826 0.01220379 0.00269862 0.02075466 0.03019145 0.02260217 -0.01035295 0.02540807 -0.05373399 -0.06216554 0.02091507 -0.01303929 -0.03201916 0.02750929 0.02766216 0.03329396 -0.05419945 -0.04150565 -0.07855777 0.01571449 -0.0770409 0.06010813 -0.03229204 -0.00855846 0.01724793 -0.03144701 0.02072967 -0.01004303 -0.0158263 -0.02631764 -0.01969996 0.05031047 -0.00985131 0.0060139 -0.0168575 -0.04973765 -0.10603641 0.03773245 0.00748549 -0.06437696 0.01905304 -0.02376297 -0.01559694 -0.01769409 -0.02300199 0.04545067 -0.04744593 0.01484583 -0.03507382 -0.07762263 0.02822207 -0.05589969 -0.00031914 0.04187275 -0.00275215 0.05389236 -0.00627758 -0.04051564 0.02743276 -0.07007513 -0.01804171 0.02200021 0.04642813 -0.02873402 0.00149378 -0.03141375 -0.02490895 0.02799012 0.03521714 -0.07240626 -0.01298349 0.00100421 -0.00356896 -0.07283585 -0.00590118 -0.02930481 -0.01160705 -0.05314219 -0.03045156 -0.00373455 0.00057457 -0.04158129 -0.03780409 0.06366896 0.02687554 0.05312792 -0.01447409 0.00288023 0.03701368
Garbage_truck -0.01607409 -0.01177801 -0.01872315 -0.02718605 0.0772408 0.04790006 -0.02945401 0.06522349 0.0153924 -0.00078745 -0.02239477 0.01778147 0.00523422 0.00694832 0.02074298 0.02737615 0.0232386 -0.00562202 0.02440547 -0.05528941 -0.05670864 0.01787197 -0.01546817 -0.02795904 0.02803437 0.02420256 0.03308804 -0.05045083 -0.04203274 -0.07505439 0.01458395 -0.07582929 0.05778086 -0.03326232 -0.01014816 0.01492141 -0.03016016 0.01776186 -0.01287206 -0.01855331 -0.02762638 -0.02067127 0.04703787 -0.0105465 0.00430016 -0.01362855 -0.04881497 -0.10199424 0.03773345 0.00826575 -0.06244824 0.01680509 -0.0210607 -0.01662076 -0.01463469 -0.01989375 0.04272492 -0.04578999 0.01428379 -0.03414938 -0.07280076 0.02723973 -0.05124516 -0.00053992 0.03809135 -0.00172269 0.04818648 -0.008848 -0.03809318 0.02693474 -0.06477349 -0.01395876 0.02486296 0.04341979 -0.02903896 -0.00029477 -0.03017506 -0.01892188 0.02645588 0.03190948 -0.0734271 -0.01256525 0.0003964 0.00134076 -0.07121537 -0.00520992 -0.02585588 -0.00829818 -0.0516398 -0.03181193 0.0001168 2.321e-05 -0.03996492 -0.02972536 0.0613227 0.02739424 0.05031535 -0.01438337 0.00187865 0.03540904
motorcycle -0.01532821 -0.01087341 -0.02033682 -0.02676445 0.08042189 0.05044457 -0.02978416 0.06666217 0.01650431 -0.00036421 -0.02248771 0.01619486 0.00430618 0.00669409 0.02144422 0.02781251 0.02421602 -0.00858189 0.02604232 -0.05761401 -0.05846962 0.01741776 -0.01538428 -0.02844045 0.02894615 0.02396262 0.0334387 -0.05035209 -0.04452731 -0.07640389 0.0149577 -0.07799694 0.0616957 -0.03440523 -0.00978076 0.01469203 -0.0309574 0.0173594 -0.01347205 -0.01798509 -0.02819065 -0.02101627 0.05002488 -0.00938027 0.00394675 -0.01520109 -0.0492029 -0.1046091 0.03702006 0.00858009 -0.06457227 0.01752161 -0.02157482 -0.01637026 -0.01727149 -0.0226931 0.0439251 -0.04684667 0.01333929 -0.03473902 -0.07557683 0.02709437 -0.052636 -0.00056664 0.03954972 -0.00193187 0.05103404 -0.00798199 -0.03803306 0.02735155 -0.06876099 -0.01432142 0.02568238 0.04510795 -0.02981261 -0.00039329 -0.03175029 -0.01938103 0.02590511 0.03469673 -0.07644675 -0.01349822 1.807e-05 0.00098489 -0.07176916 -0.00523718 -0.02712293 -0.01046085 -0.05414802 -0.03193159 -0.0019 0.00166003 -0.0412059 -0.03361406 0.06178955 0.02604257 0.05522542 -0.01500043 0.00263193 0.0366511
bike -0.01798003 -0.01070129 -0.01966235 -0.02683887 0.07791162 0.05210441 -0.03051056 0.07014918 0.01618992 -0.00135815 -0.02281197 0.01618864 0.00851367 0.00856525 0.02320381 0.02854489 0.02107364 -0.00610144 0.02625786 -0.05709201 -0.062212 0.02253638 -0.01581769 -0.03087226 0.02727223 0.02542836 0.03300382 -0.05360111 -0.04255556 -0.08028281 0.01378268 -0.07922919 0.06219263 -0.03218116 -0.01011117 0.0173006 -0.03028619 0.01939615 -0.01207168 -0.01632167 -0.02812163 -0.0211218 0.04976467 -0.01074006 0.00629374 -0.01587078 -0.05116104 -0.10908201 0.03997112 0.00675894 -0.06589536 0.01790339 -0.02286286 -0.01860472 -0.01774127 -0.01913096 0.04668401 -0.04936609 0.01364836 -0.03643188 -0.07752138 0.02868763 -0.05572894 -0.00183203 0.04159138 -0.00180236 0.05492779 -0.0105957 -0.04100344 0.02751136 -0.07034474 -0.01639778 0.0247815 0.0477925 -0.02753079 0.00075884 -0.03266424 -0.0220347 0.0294699 0.03614246 -0.07483382 -0.01367831 0.00047846 -0.00113669 -0.07327116 -0.00606485 -0.02870338 -0.01261485 -0.05302877 -0.03143811 -0.00649441 -0.0008418 -0.04156353 -0.034925 0.06265513 0.02753073 0.05790817 -0.01603839 -0.00079113 0.03590952
Emergency_rescue_vehicle -0.01620976 -0.01110524 -0.01922972 -0.02771142 0.07774258 0.05311704 -0.0326798 0.07292756 0.01681692 -0.00029521 -0.02484945 0.01748676 0.00840186 0.01182406 0.02469468 0.02816277 0.02441717 -0.00301718 0.02491478 -0.05957179 -0.06129514 0.02059753 -0.01854805 -0.03150559 0.02973716 0.02753704 0.03189431 -0.05150956 -0.04349319 -0.07873545 0.01458232 -0.08174186 0.06672603 -0.03054096 -0.01080749 0.01837777 -0.0303086 0.01919771 -0.01307854 -0.0178557 -0.02991944 -0.02159224 0.04876256 -0.01254181 0.00704676 -0.01950054 -0.05253278 -0.11089971 0.03915751 0.00721873 -0.06657927 0.01691303 -0.02367366 -0.01700927 -0.01511674 -0.01803801 0.04552644 -0.05104999 0.01365737 -0.03658031 -0.07974714 0.02794538 -0.05662872 0.00071465 0.04069886 -0.00293927 0.05342809 -0.01245186 -0.04145766 0.02868814 -0.06948677 -0.01404637 0.02522342 0.04632869 -0.02804381 -0.0003027 -0.03255146 -0.01941327 0.02748174 0.03829625 -0.07223611 -0.01732735 3.992e-05 0.00066198 -0.07258621 -0.00810232 -0.02882257 -0.01325051 -0.05278614 -0.03401703 -0.00686732 -0.00255439 -0.04137418 -0.03431553 0.06244845 0.02687423 0.05955198 -0.01640793 -0.00084561 0.03859656
bus -0.01624437 -0.01159083 -0.01904296 -0.02726753 0.07881691 0.04953495 -0.02997408 0.06689149 0.01601851 -0.0013569 -0.02309943 0.01774731 0.00570472 0.00675113 0.02171837 0.02815541 0.02458956 -0.00541184 0.02446672 -0.0569532 -0.05889536 0.01840712 -0.01562961 -0.02922387 0.02715941 0.02521828 0.03356693 -0.05185738 -0.04243629 -0.07691332 0.01555969 -0.07775873 0.06018041 -0.03270328 -0.01030927 0.01605247 -0.03123809 0.01889319 -0.01232327 -0.01865121 -0.02805795 -0.02059734 0.04832912 -0.01075312 0.00414517 -0.01323742 -0.04921806 -0.10449924 0.03835963 0.00846727 -0.06419189 0.01722898 -0.02225188 -0.01693524 -0.01406195 -0.02050736 0.04348237 -0.04708904 0.01405012 -0.03468824 -0.0742842 0.02780839 -0.05261553 -0.00020143 0.03903869 -0.00212963 0.0498665 -0.01091929 -0.03923282 0.02858798 -0.06705107 -0.01409103 0.0247467 0.04452417 -0.02891096 0.00034191 -0.03087806 -0.01996214 0.02807812 0.03373748 -0.07140591 -0.01344898 -4.8e-06 0.00155149 -0.07234394 -0.00568249 -0.02655469 -0.00954927 -0.05286635 -0.03242656 5.289e-05 -6.388e-05 -0.04041576 -0.02876448 0.06341827 0.02757873 0.05507562 -0.01476798 0.0012532 0.03572151
Tram -0.01696072 -0.01144918 -0.02365199 -0.02602431 0.07406232 0.0505325 -0.02850646 0.06588837 0.01578242 -0.00134396 -0.02400471 0.01494195 0.01128159 0.00582367 0.02057225 0.02833817 0.02059454 -0.00731656 0.02559056 -0.05583459 -0.05909556 0.02118126 -0.01559285 -0.02953016 0.02547045 0.02451254 0.03234325 -0.04985541 -0.04127178 -0.07767861 0.01185708 -0.07747637 0.06027874 -0.03059167 -0.00986534 0.01795297 -0.02809075 0.01761142 -0.01089047 -0.01507482 -0.02670716 -0.01905831 0.04767296 -0.01008086 0.00580139 -0.01974525 -0.04979878 -0.10549242 0.03812895 0.00682458 -0.06265374 0.01748095 -0.02191885 -0.01755567 -0.01762367 -0.02032587 0.04380419 -0.0477442 0.01301857 -0.03603482 -0.07534499 0.02787786 -0.05283475 -0.00035879 0.03946485 -0.00082419 0.0534741 -0.00927229 -0.03912612 0.02723641 -0.06957278 -0.01704666 0.02620348 0.0446789 -0.02776118 0.00053253 -0.03135821 -0.02076504 0.02739446 0.03394416 -0.07488525 -0.01235716 0.00079069 -0.00157401 -0.07017194 -0.00547256 -0.02863014 -0.01281893 -0.05164331 -0.0289736 -0.00713916 -0.00068143 -0.04152339 -0.03471552 0.05946261 0.02652791 0.05568399 -0.01550031 0.00016086 0.03404415
Pickup_truck -0.01501416 -0.00861869 -0.02101737 -0.02323905 0.0695885 0.04591661 -0.02662498 0.06137172 0.01446718 -0.00095267 -0.02095776 0.01315298 0.00919499 0.0060563 0.0203661 0.02543575 0.02005611 -0.00807656 0.02379447 -0.05081824 -0.05464865 0.01858844 -0.0131915 -0.02689327 0.02535028 0.02281288 0.0298703 -0.04680479 -0.0383279 -0.0700952 0.01359202 -0.06978861 0.05448655 -0.02933029 -0.00830614 0.01557348 -0.02759765 0.01680862 -0.01085972 -0.01439425 -0.02458828 -0.01867882 0.04490793 -0.00851793 0.00490111 -0.01544021 -0.04479209 -0.09532209 0.03388895 0.00655833 -0.05798539 0.01647687 -0.02016609 -0.01518654 -0.01668306 -0.01914307 0.0408095 -0.04270607 0.01197562 -0.0318257 -0.06893895 0.02470535 -0.0490047 -0.00106524 0.03706223 -0.00179477 0.04829783 -0.00590428 -0.03514739 0.02487631 -0.06293637 -0.01465596 0.02277291 0.04179465 -0.02564811 0.00062107 -0.02875183 -0.01964328 0.02576434 0.03192148 -0.06972003 -0.01116555 0.00011362 -0.00112195 -0.0648674 -0.00526872 -0.02549678 -0.01003712 -0.04826378 -0.02813408 -0.0057906 0.00065029 -0.03755169 -0.03228766 0.05497089 0.02346588 0.05132171 -0.01374672 0.00362164 0.03199447
Engineering_vehicle -0.0175204 -0.01092656 -0.01994372 -0.02744927 0.0756482 0.04838653 -0.02933786 0.0661248 0.01584934 -0.00238954 -0.0267111 0.01472965 0.01019048 0.00435624 0.01929247 0.03015231 0.02090155 -0.00745294 0.02515141 -0.05311898 -0.05958202 0.02120112 -0.01653912 -0.02913505 0.02552831 0.02695529 0.03182263 -0.05122597 -0.04081409 -0.07827081 0.01106919 -0.07621688 0.06026744 -0.03176677 -0.00972064 0.02035214 -0.02822013 0.01832436 -0.00903661 -0.01559299 -0.02524389 -0.01921259 0.0463555 -0.01118769 0.00759007 -0.01943878 -0.05024461 -0.10500084 0.03873753 0.00785852 -0.06184914 0.01833317 -0.02128286 -0.01424676 -0.01665863 -0.02210703 0.04375006 -0.04688099 0.01500972 -0.03531366 -0.07667356 0.0281019 -0.05427043 -0.00047151 0.04044733 -0.00144303 0.05396142 -0.00916448 -0.03927942 0.02653181 -0.06816335 -0.01768099 0.02453257 0.04398704 -0.02907317 0.00139056 -0.03191467 -0.02254909 0.02638788 0.03532233 -0.07512971 -0.01207317 0.00163546 -0.00283398 -0.07152809 -0.00640423 -0.02990137 -0.01307145 -0.05142756 -0.02842017 -0.00311916 -0.00149602 -0.04154376 -0.03532197 0.06008101 0.02638653 0.04962361 -0.01381177 -0.00132077 0.03478536
Traffic_lights -0.01807518 -0.01392054 -0.02130469 -0.02964438 0.09112205 0.06492335 -0.03321892 0.07711305 0.01934496 0.00080712 -0.02352101 0.0184049 0.01164345 0.00906179 0.02635744 0.03145712 0.02674122 -0.01040233 0.03185501 -0.06974593 -0.06901333 0.02458874 -0.0169339 -0.03379261 0.03184835 0.02627234 0.04094171 -0.05829598 -0.04754763 -0.09156827 0.01913622 -0.09297173 0.0745094 -0.03465975 -0.01138453 0.01660783 -0.03785006 0.02097774 -0.01687422 -0.02093994 -0.03394221 -0.02437173 0.06221877 -0.00962753 0.00138873 -0.02606045 -0.05622153 -0.12143405 0.04242225 0.00569862 -0.07776067 0.02024956 -0.0271651 -0.02399883 -0.0179578 -0.01841523 0.05111017 -0.05526884 0.01225251 -0.04170073 -0.08789597 0.03140068 -0.0585551 0.00122832 0.04531635 -0.00094229 0.05999521 -0.00823098 -0.04512687 0.03867447 -0.08455019 -0.02122177 0.03344763 0.05471003 -0.030412 -0.00056192 -0.03571174 -0.02232096 0.03537508 0.03769179 -0.08929987 -0.0187058 -0.00233168 0.00119076 -0.08363005 -0.00479923 -0.02795153 -0.0088388 -0.06356642 -0.0390642 -0.00894194 0.00466392 -0.04895377 -0.03950711 0.07169396 0.03088576 0.07299888 -0.01952471 0.00500407 0.04107606
Traffic_cone -0.01761794 -0.01247275 -0.0178434 -0.02866088 0.08393844 0.05782495 -0.03091755 0.07251537 0.01768181 -0.000695 -0.0235359 0.01772959 0.00970638 0.00726286 0.02377556 0.02975608 0.02470028 -0.00964097 0.0278122 -0.06304575 -0.06471674 0.020881 -0.01674909 -0.0331875 0.02891482 0.02397478 0.03788858 -0.05710635 -0.04606175 -0.08490537 0.0208252 -0.08511563 0.06833419 -0.03660587 -0.01093812 0.0169352 -0.03552159 0.0208435 -0.01466098 -0.01989368 -0.0307394 -0.02158508 0.057735 -0.00910136 0.00166222 -0.01812077 -0.05182372 -0.11333223 0.04060755 0.00639504 -0.07109807 0.01912657 -0.02460965 -0.01997865 -0.01475894 -0.02125864 0.04753971 -0.05062333 0.01352181 -0.03781894 -0.08268568 0.03026252 -0.05585518 -0.00150026 0.04261509 -0.0016568 0.05528792 -0.00584057 -0.04219339 0.03334836 -0.07574331 -0.01776486 0.0284841 0.05078971 -0.0309054 0.00058349 -0.03305067 -0.02237274 0.0341511 0.03600939 -0.08079913 -0.01536315 -0.00128016 0.00153577 -0.07850291 -0.00508096 -0.02585901 -0.00818154 -0.05943282 -0.03624528 0.0008368 0.00274145 -0.04488014 -0.0366887 0.06995162 0.0303186 0.06300823 -0.0169801 0.00327362 0.03776023
lane -0.01991955 -0.01075582 -0.02800674 -0.02648872 0.07774661 0.05170944 -0.02850674 0.06754059 0.01590561 -0.00131695 -0.02160272 0.01624425 0.01363081 -0.00041089 0.02391055 0.02976139 0.01980172 -0.00971508 0.02852181 -0.0579227 -0.0631089 0.02147879 -0.01174895 -0.03039019 0.02443836 0.0251531 0.03604952 -0.0564393 -0.03988899 -0.08324504 0.01840962 -0.07948628 0.05919311 -0.0352682 -0.01041792 0.0152193 -0.03211293 0.01882174 -0.01073928 -0.01732053 -0.02812953 -0.02170987 0.05154151 -0.00912443 0.00379379 -0.02225846 -0.0503131 -0.11020432 0.04064931 0.00895154 -0.0664337 0.01933097 -0.0222274 -0.02128444 -0.01860846 -0.02096597 0.04780757 -0.0472897 0.01387891 -0.03620093 -0.07576694 0.03098209 -0.05554044 -0.00279218 0.04242975 0.00022737 0.05556649 -0.0082135 -0.03942781 0.02805523 -0.07270421 -0.01943733 0.02575975 0.04958865 -0.02783247 0.00267324 -0.03318681 -0.0245271 0.03227458 0.03207741 -0.08172113 -0.0107491 0.00075294 -0.00180802 -0.07597028 -0.00371561 -0.02763376 -0.00729841 -0.05552446 -0.02881003 0.00013932 -0.00039927 -0.04213082 -0.03323939 0.06585826 0.0298861 0.05695479 -0.01567014 0.00388453 0.03377768
Water_horse -0.01906986 -0.01067463 -0.0208438 -0.0303412 0.09209507 0.06126463 -0.03327211 0.07594372 0.01783705 -0.00324001 -0.02705078 0.01894369 0.00984163 0.00890762 0.02387473 0.03130187 0.02740306 -0.00697274 0.02862144 -0.06788299 -0.06791541 0.02382218 -0.01728665 -0.03836564 0.03138357 0.02789146 0.039497 -0.06004171 -0.04812345 -0.08751902 0.02169161 -0.09050251 0.07348747 -0.0339393 -0.01126437 0.01882249 -0.03748006 0.02303698 -0.01543604 -0.02072292 -0.03236056 -0.02236786 0.05750364 -0.01150652 0.00241483 -0.01932823 -0.05659688 -0.11889925 0.04253904 0.00901874 -0.0737641 0.01976323 -0.0279128 -0.02096843 -0.01421946 -0.01972346 0.04867621 -0.0546351 0.01512479 -0.03992888 -0.08874071 0.03192637 -0.05943764 0.00053525 0.04438263 -0.00207034 0.05590957 -0.00661097 -0.04608621 0.03757225 -0.0787567 -0.01699982 0.02889241 0.05135008 -0.03151186 0.00010596 -0.03301675 -0.02285702 0.03587715 0.03755698 -0.08195968 -0.01754416 -0.00078661 0.00038859 -0.08207182 -0.0066524 -0.02897969 -0.00731867 -0.06043955 -0.03943796 0.00275424 0.00264966 -0.04708118 -0.0357674 0.07242248 0.0323934 0.07043748 -0.01818384 0.00499198 0.04156323
Crossover -0.01904214 -0.01228166 -0.02709219 -0.02520074 0.08274896 0.05756478 -0.02968543 0.07429344 0.01780252 0.00048771 -0.02036067 0.01544351 0.0171877 0.00624025 0.02725536 0.02985884 0.0193171 -0.01115233 0.02850344 -0.06101016 -0.06711961 0.02175219 -0.01331495 -0.03349197 0.03039073 0.02306 0.03749385 -0.05838196 -0.04375558 -0.08514149 0.02056926 -0.08298558 0.06661066 -0.03371402 -0.01106286 0.01413518 -0.03707427 0.02187679 -0.01426018 -0.01813251 -0.02967675 -0.02272757 0.05704263 -0.00756717 0.00110434 -0.0175037 -0.04992066 -0.11331061 0.04112311 0.00439553 -0.07157707 0.01906659 -0.02500927 -0.02213213 -0.01812475 -0.01893668 0.0490398 -0.05008189 0.01175595 -0.03757555 -0.07862666 0.03141053 -0.05605654 -0.00362964 0.04286564 -0.00105273 0.05745473 -0.00504409 -0.04085372 0.03337648 -0.0763392 -0.01879985 0.026737 0.05476125 -0.02709025 0.00283528 -0.03304105 -0.02405911 0.03544641 0.03539918 -0.08344654 -0.01357523 -0.00294744 0.00060202 -0.07720686 -0.00332814 -0.02623625 -0.00654386 -0.06004799 -0.03512438 -0.00492316 0.00295045 -0.04365934 -0.03534261 0.06798058 0.0305877 0.06684084 -0.01746265 0.00559549 0.0351586
Stop -0.01750305 -0.01084988 -0.02999746 -0.02514992 0.08491139 0.05443211 -0.02746299 0.06754986 0.01744892 0.00137564 -0.01754442 0.01578314 0.01436017 0.00364536 0.02424827 0.02922748 0.02020847 -0.01510482 0.02882469 -0.06056354 -0.06370172 0.01981779 -0.01007064 -0.03182942 0.02701414 0.01890232 0.03868858 -0.05645574 -0.04475284 -0.08156399 0.02205599 -0.08082776 0.05946945 -0.03565173 -0.01045056 0.01212827 -0.03598764 0.01945798 -0.01375127 -0.01823934 -0.02893263 -0.02210777 0.05783649 -0.00544718 -0.00111462 -0.01742572 -0.04812108 -0.1086199 0.03930651 0.00879558 -0.06933761 0.01890619 -0.02336458 -0.02197134 -0.02074403 -0.02252794 0.04744797 -0.04714682 0.01157383 -0.03640264 -0.07640597 0.03004359 -0.05318664 -0.00244547 0.04133229 -0.00022663 0.05561563 -0.00084165 -0.0380989 0.03077536 -0.07521429 -0.01946729 0.02629278 0.05175745 -0.02940549 0.00158654 -0.03231103 -0.02458986 0.03444978 0.03109104 -0.08427649 -0.01007703 -0.00227693 0.00023272 -0.07546984 -0.00144109 -0.02537059 -0.00366828 -0.06000093 -0.03394501 -0.00193835 0.0064827 -0.04368036 -0.03607215 0.06702315 0.02949497 0.06223635 -0.01658509 0.00893955 0.03285297
No_U_turns  -0.01541796 -0.01032418 -0.02088899 -0.0223143 0.07208967 0.04768023 -0.02427999 0.05796808 0.01438803 -0.00132174 -0.01787253 0.0144892 0.01030308 0.00475103 0.01987525 0.02481192 0.01876531 -0.00827984 0.0242876 -0.05258232 -0.05426465 0.0182174 -0.01083036 -0.0284932 0.02245514 0.01915815 0.03259634 -0.04825583 -0.0375225 -0.0695617 0.01790552 -0.06981443 0.05448589 -0.02817115 -0.00869125 0.01251316 -0.03011926 0.01722835 -0.01144083 -0.0156395 -0.02519623 -0.01850863 0.04757396 -0.0068403 2.175e-05 -0.0168242 -0.04297437 -0.09345135 0.03362649 0.00767063 -0.05902433 0.01612862 -0.02149674 -0.01877848 -0.0136889 -0.01594269 0.03828837 -0.04154948 0.01083621 -0.0314448 -0.06651874 0.02589923 -0.04583514 -0.00030778 0.03552927 -0.00057766 0.04549956 -0.00344658 -0.03432696 0.02791695 -0.0629637 -0.01568508 0.02301291 0.04286525 -0.02471128 0.00065509 -0.02631157 -0.01958575 0.02904851 0.02791065 -0.06653775 -0.01122056 -0.00120269 0.00022579 -0.06504039 -0.00281644 -0.02205501 -0.00423737 -0.04948931 -0.0297886 -0.00024566 0.00376212 -0.0371858 -0.02890352 0.05740102 0.0258792 0.05409403 -0.01447775 0.00467257 0.02972013
No_parking -0.0177068 -0.01148662 -0.02418763 -0.02495003 0.08199658 0.05110543 -0.02844343 0.06740379 0.01645526 -0.00117015 -0.01990599 0.01672144 0.01195148 0.0064761 0.02430527 0.02731933 0.0220003 -0.01006078 0.02797498 -0.05938267 -0.06237694 0.0205092 -0.01186235 -0.03090047 0.02756669 0.02316124 0.03640171 -0.05530859 -0.04352291 -0.07908236 0.01940479 -0.07882672 0.06110486 -0.03323709 -0.0098926 0.01289551 -0.03342796 0.01923719 -0.0135976 -0.01768427 -0.0294544 -0.02226289 0.05322023 -0.00792204 0.00180725 -0.01713745 -0.04905844 -0.10741093 0.03925176 0.00885714 -0.06753937 0.01839409 -0.023321 -0.0213419 -0.01707363 -0.01799316 0.04633619 -0.04738677 0.01244314 -0.03554686 -0.07630263 0.02946805 -0.05383509 -0.00193079 0.04128191 -0.00057532 0.05236358 -0.00549609 -0.03863748 0.02956819 -0.07058835 -0.01663109 0.02632435 0.04838882 -0.02764356 0.00042077 -0.03157232 -0.02240098 0.0323312 0.0326177 -0.07784001 -0.01224784 -0.00083814 0.00043688 -0.07421502 -0.0036625 -0.02595845 -0.00538297 -0.05560055 -0.03366525 -0.00134614 0.00259764 -0.04188112 -0.0324987 0.06528801 0.02880605 0.0590283 -0.01635585 0.0069476 0.03434072
No_engy -0.01768434 -0.01250447 -0.02363612 -0.02543154 0.08431034 0.05566599 -0.02783341 0.0669079 0.01596331 -0.00276706 -0.02235009 0.01731238 0.01103158 0.00693983 0.02259755 0.02804626 0.02292272 -0.0079198 0.02814275 -0.06318029 -0.06270715 0.02189234 -0.01339223 -0.03379408 0.02453061 0.0233204 0.03758105 -0.05499496 -0.04428627 -0.07944944 0.01945403 -0.0821588 0.06435758 -0.03117837 -0.00949466 0.01483649 -0.03347376 0.02011551 -0.0133052 -0.01712045 -0.03023868 -0.02105223 0.05399498 -0.00862161 0.00042494 -0.01908429 -0.05059892 -0.1089275 0.03818893 0.01117798 -0.06825051 0.01812373 -0.02605305 -0.02253111 -0.01536473 -0.01647669 0.04400165 -0.04970638 0.01188146 -0.03720028 -0.07812133 0.02955699 -0.05349723 0.00127562 0.04071218 -0.00054452 0.05191689 -0.00510886 -0.04054417 0.03260696 -0.07327055 -0.01754452 0.02793771 0.04782119 -0.02780313 -0.00034267 -0.02966989 -0.02176044 0.03329832 0.03329388 -0.07410011 -0.01420981 -0.00112824 0.00011781 -0.07398374 -0.00420972 -0.02608642 -0.00546843 -0.05565809 -0.03495613 -0.00046646 0.00336938 -0.04284454 -0.03264561 0.06536177 0.0297702 0.0627249 -0.01821496 0.00554867 0.03495503
Speed_limit -0.01664647 -0.01151473 -0.02418272 -0.02405518 0.07846051 0.05172864 -0.0256965 0.06225065 0.01617199 -2.149e-05 -0.01885671 0.01503267 0.01207813 0.00467875 0.02158613 0.02732577 0.01901184 -0.01036809 0.02611284 -0.05771863 -0.05844662 0.01935197 -0.01197746 -0.0305503 0.0230535 0.01942247 0.03511818 -0.05077949 -0.04073459 -0.07642629 0.01760555 -0.07602943 0.05736315 -0.03128889 -0.01008086 0.01207765 -0.03134543 0.01774785 -0.01236181 -0.01617517 -0.02667222 -0.01949222 0.0514297 -0.00661653 -0.00022522 -0.01925548 -0.04629769 -0.10158621 0.03659304 0.00916268 -0.06309556 0.01704593 -0.02241785 -0.0205329 -0.01708267 -0.01807675 0.04230217 -0.04508514 0.01094745 -0.03490594 -0.07155086 0.0280226 -0.04881865 -0.00058049 0.03752526 0.00013068 0.05106845 -0.00300187 -0.03643806 0.02977455 -0.0694533 -0.0182598 0.02669926 0.04648656 -0.02680115 0.00116036 -0.0292724 -0.02096757 0.03108072 0.02984975 -0.07427747 -0.01050466 -0.00184363 0.000191 -0.06946903 -0.00201376 -0.02406881 -0.00472982 -0.05435405 -0.03109927 -0.00246568 0.0044847 -0.04079204 -0.0329136 0.06060268 0.02757789 0.05729311 -0.01584074 0.00585385 0.03079232
Slow_down -0.01802506 -0.01057676 -0.02478512 -0.02416232 0.08014062 0.05445365 -0.02743097 0.06748512 0.01626047 -0.00100247 -0.01954166 0.01656275 0.01542598 0.00634731 0.02473399 0.02705048 0.01947357 -0.01011173 0.02875428 -0.06047882 -0.06253811 0.02294168 -0.01111445 -0.0326273 0.02581867 0.02097907 0.03694329 -0.05504382 -0.04263174 -0.07917915 0.01945635 -0.08005683 0.06262555 -0.0315167 -0.01002495 0.0143208 -0.03273935 0.0191183 -0.01322193 -0.01656909 -0.02957689 -0.02181063 0.05388816 -0.00729323 0.00069809 -0.02085558 -0.04927861 -0.1083207 0.03905604 0.00813785 -0.06804477 0.0180927 -0.02441264 -0.02346171 -0.01824812 -0.01699488 0.04636215 -0.04827948 0.01120161 -0.03653996 -0.07512684 0.0298198 -0.0531412 -0.00310406 0.04100173 0.00030948 0.05399778 -0.00296955 -0.03902101 0.0307467 -0.07268895 -0.01907341 0.02797889 0.049688 -0.02623801 0.00010116 -0.03080092 -0.02319107 0.03423542 0.03200126 -0.07864556 -0.01118746 -0.00142153 -0.00060668 -0.07363605 -0.00274069 -0.02557156 -0.00549777 -0.05572127 -0.03347407 -0.00538439 0.00327703 -0.0423555 -0.03387387 0.06413516 0.02964489 0.06154844 -0.0177295 0.00650353 0.03299553
Zebra_crossing -0.02078678 -0.01138359 -0.02141109 -0.02877457 0.08690147 0.05540674 -0.02935117 0.07631421 0.01667891 -0.00092757 -0.01962378 0.01893227 0.01157649 0.00379096 0.02625371 0.03142182 0.02538335 -0.00976823 0.02857646 -0.06212532 -0.06933413 0.02200408 -0.01363284 -0.03359461 0.03092334 0.0257728 0.04057806 -0.06333565 -0.04364578 -0.08991904 0.02185894 -0.08638816 0.06811008 -0.03807376 -0.01166968 0.01409827 -0.03516096 0.02229974 -0.01273729 -0.01965649 -0.03299779 -0.02310497 0.05929975 -0.00883494 0.00316498 -0.01797896 -0.05139054 -0.11842505 0.04443155 0.00769973 -0.07445312 0.02032561 -0.02568693 -0.02287464 -0.01738654 -0.01823608 0.05411848 -0.05158454 0.01390712 -0.0368096 -0.08482716 0.03480318 -0.06060154 -0.00086315 0.04460327 0.00029627 0.06073043 -0.00570043 -0.04255915 0.03118579 -0.07672363 -0.02024935 0.0268407 0.05292908 -0.02763586 -0.00012931 -0.03644058 -0.0277708 0.03417162 0.03722261 -0.08088774 -0.01237023 0.00028589 -0.00037055 -0.08079009 -0.00429427 -0.02880996 -0.0068643 -0.05935477 -0.03408806 -0.00369548 0.00058719 -0.04306686 -0.03401528 0.07538233 0.03283878 0.0666033 -0.01655209 0.0023984 0.03859983
Going_and_turning_left -0.02156465 -0.01560522 -0.01705459 -0.03156238 0.09166196 0.05642781 -0.02984469 0.07801672 0.017753 0.00090387 -0.01905232 0.02233722 0.01118959 0.00516335 0.02719063 0.03221644 0.02858594 -0.00364649 0.02960198 -0.06504124 -0.06984049 0.01881736 -0.01798258 -0.0319204 0.0345605 0.02546448 0.04311607 -0.06422576 -0.04525513 -0.09585378 0.02192226 -0.08984409 0.06876974 -0.03780359 -0.01317553 0.01140668 -0.03473872 0.02130962 -0.01336298 -0.02206219 -0.03510624 -0.02436705 0.06056457 -0.00981243 0.00302761 -0.02003209 -0.05311672 -0.12289564 0.0479916 0.00732383 -0.07621332 0.02074345 -0.02454497 -0.02354386 -0.01660846 -0.01523432 0.05539768 -0.0528176 0.0145873 -0.03812411 -0.08651831 0.0364666 -0.0604096 -1.991e-05 0.04445051 0.00163497 0.06048534 -0.01330778 -0.04272144 0.03044157 -0.07791778 -0.0205894 0.02951338 0.0532728 -0.02862951 -0.00125546 -0.03886052 -0.02603559 0.0356814 0.037347 -0.08155149 -0.01696293 0.00055899 0.00318434 -0.08306266 -0.00297425 -0.02864462 -0.00806845 -0.06193544 -0.03522669 -0.00103842 -0.00070815 -0.04514261 -0.02869967 0.08023646 0.03440461 0.06579952 -0.01634943 0.00272293 0.0395255
Turn_right -0.01845276 -0.01195558 -0.01894918 -0.02770384 0.07713732 0.04870705 -0.02734965 0.06950933 0.01573704 -0.00017248 -0.0205486 0.01736823 0.00929485 0.00345108 0.0227518 0.03069019 0.02349817 -0.00581629 0.02567697 -0.05635789 -0.06246413 0.01824875 -0.01492918 -0.02776759 0.0296149 0.02447519 0.03564102 -0.05538514 -0.04035156 -0.0839469 0.0145908 -0.07929988 0.06105763 -0.03479249 -0.01083101 0.01430433 -0.02951532 0.01880065 -0.01098218 -0.01781172 -0.02923981 -0.02017359 0.05021773 -0.00906789 0.00532487 -0.01920566 -0.04732022 -0.10900555 0.04090762 0.00709581 -0.06672801 0.01862191 -0.02164463 -0.01797748 -0.01819494 -0.01895334 0.04948929 -0.0471343 0.01350126 -0.03366859 -0.07881004 0.03099978 -0.05549858 0.00111959 0.04030592 6.651e-05 0.05604483 -0.01042086 -0.03880352 0.02746233 -0.07001197 -0.01862688 0.02609134 0.0464575 -0.02632025 -0.00012 -0.03481451 -0.0238011 0.02831861 0.03539098 -0.07595952 -0.01281172 0.00128447 0.00012799 -0.07352003 -0.00470464 -0.02790448 -0.01072995 -0.05408407 -0.02897635 -0.0018561 -0.00159788 -0.03988837 -0.02899693 0.06883475 0.02858936 0.05495337 -0.0143171 -5.153e-05 0.03559855
Going -0.0185871 -0.01689367 -0.01447412 -0.027832 0.07813665 0.05306272 -0.02552739 0.07065979 0.01473358 -0.00178481 -0.02052567 0.01935964 0.00938162 0.00390324 0.02281652 0.03046859 0.02466104 -0.00179103 0.02589656 -0.06013254 -0.06359325 0.01999185 -0.01595271 -0.03228915 0.02326407 0.02512105 0.03758058 -0.05648357 -0.03742956 -0.08625269 0.01642614 -0.08262086 0.063153 -0.03292211 -0.01072681 0.01422282 -0.03059109 0.0204622 -0.01059279 -0.0177677 -0.03163966 -0.0196112 0.05154669 -0.01000847 0.00313951 -0.01862539 -0.04865866 -0.11203123 0.04094393 0.00826281 -0.06865985 0.01827079 -0.02537581 -0.0218128 -0.01392287 -0.01335274 0.04795731 -0.04987699 0.01260125 -0.03535667 -0.0800608 0.03154337 -0.05524978 0.00372118 0.03988879 0.00043088 0.05588387 -0.0127635 -0.04110567 0.03144675 -0.0715554 -0.01919764 0.02721351 0.04672292 -0.02381476 -0.00120762 -0.03257702 -0.02304916 0.03196598 0.03573322 -0.07449487 -0.01654916 0.00080555 0.00138639 -0.07365287 -0.0046823 -0.02684823 -0.00802434 -0.05420054 -0.03111384 -0.00158081 -0.00149967 -0.04066848 -0.02590239 0.07068407 0.03053591 0.05904222 -0.01666082 -0.00218341 0.03398669
cat -0.01618792 -0.00813582 -0.02377267 -0.02531356 0.0788309 0.05196688 -0.02871079 0.06608805 0.0155856 -0.00262496 -0.02269554 0.01463163 0.0088024 0.00660314 0.0211626 0.02844659 0.0231457 -0.00848046 0.02489332 -0.05549123 -0.06059913 0.01937014 -0.01238857 -0.03266829 0.02889451 0.02547785 0.03355462 -0.0527143 -0.04193881 -0.07619235 0.01747486 -0.07652196 0.06337261 -0.03075812 -0.00884349 0.01489093 -0.03373424 0.02043169 -0.01221373 -0.01714494 -0.02685629 -0.01995513 0.05107283 -0.0087887 0.00310535 -0.01590737 -0.04749882 -0.1022632 0.03591391 0.00810904 -0.06457079 0.01776602 -0.02409428 -0.01673084 -0.01515725 -0.01900217 0.04268948 -0.04609366 0.01336684 -0.03394835 -0.07628055 0.02747958 -0.05301042 -0.00045629 0.03978619 -0.00286334 0.04992323 -0.00518857 -0.03883068 0.0300519 -0.068627 -0.01491266 0.02253276 0.04643302 -0.02829593 0.00130995 -0.02936845 -0.02195415 0.02815503 0.03477377 -0.07127471 -0.01460911 -0.00086408 -0.00115259 -0.07149719 -0.00591082 -0.02610423 -0.00872431 -0.05322213 -0.03290451 0.00013057 0.00268677 -0.04050119 -0.03456405 0.06282174 0.02690505 0.05812052 -0.01507314 0.00412989 0.03725828
dogs -0.01692377 -0.00798679 -0.02794213 -0.02573571 0.08099267 0.05061612 -0.02824623 0.0674516 0.01645073 -0.00022823 -0.01978377 0.0151155 0.00945269 0.00394409 0.02243883 0.02897708 0.02335918 -0.01312133 0.02709301 -0.05664388 -0.06236895 0.0175014 -0.01044823 -0.03016821 0.02988262 0.0239268 0.03607398 -0.0550884 -0.04395175 -0.07845996 0.01999328 -0.07765292 0.05972603 -0.03640498 -0.0095965 0.01146058 -0.03368708 0.01918041 -0.01294773 -0.01805469 -0.0278688 -0.02194293 0.05395321 -0.00684551 0.0028616 -0.01388855 -0.04765942 -0.10556762 0.03819831 0.00853613 -0.06681109 0.01886657 -0.02224623 -0.0181783 -0.01958508 -0.0245694 0.04767458 -0.04562682 0.01332805 -0.03419126 -0.07663844 0.02897287 -0.05455466 -0.00233738 0.04131102 -0.00148586 0.05297361 -0.00308642 -0.03784265 0.02760312 -0.07115379 -0.01643071 0.02371061 0.04828386 -0.02940275 0.00144296 -0.03247274 -0.02386719 0.02914364 0.03434982 -0.07964797 -0.01030598 -0.00059478 -0.00060903 -0.07455067 -0.00357561 -0.02651392 -0.00650841 -0.05660127 -0.0326145 0.00080788 0.00261249 -0.04206249 -0.03306619 0.06589963 0.02771251 0.05698176 -0.01478723 0.00625648 0.03666623
moon -0.02388688 -0.01043704 -0.02718526 -0.03629767 0.1099123 0.06484271 -0.03392687 0.08856726 0.01932057 -0.00075618 -0.01851922 0.02112486 0.01485753 0.0048122 0.02773014 0.03984775 0.04091815 -0.01964106 0.03780591 -0.07247763 -0.08709177 0.01621999 -0.01549083 -0.03402109 0.04281291 0.03189301 0.0540179 -0.07806417 -0.05583985 -0.1129704 0.02867373 -0.106081 0.08735926 -0.05268889 -0.00998651 0.01343252 -0.04692436 0.02701847 -0.0162374 -0.02455153 -0.04330921 -0.02989772 0.07994321 -0.0066243 0.00234036 -0.02041133 -0.06164899 -0.14713809 0.05046393 0.01848762 -0.09419497 0.02757999 -0.03175542 -0.02498928 -0.02485972 -0.02560025 0.0709071 -0.06256185 0.01728552 -0.04407857 -0.11149004 0.04205188 -0.07766411 -0.00156121 0.05640738 0.00129854 0.07568853 -0.00486585 -0.04908329 0.0377455 -0.09567337 -0.02349628 0.03366804 0.06158856 -0.03393032 -0.00482626 -0.04661104 -0.03743859 0.03527758 0.05395349 -0.10450052 -0.0158981 0.00176146 0.00187051 -0.09974711 -0.00600266 -0.03621115 -0.00895095 -0.07663953 -0.04281904 -0.00917964 0.00359277 -0.05440533 -0.03931238 0.09915884 0.03843789 0.07719105 -0.01932686 0.01609295 0.05148951
Fence -0.01888289 -0.01239985 -0.02654097 -0.03098232 0.0974664 0.05755065 -0.03568626 0.08149377 0.01985299 0.003317 -0.01837526 0.02128095 0.01363348 0.00953654 0.02827703 0.0295082 0.02745274 -0.01100793 0.03178594 -0.06639126 -0.06885581 0.01973301 -0.01556321 -0.03346188 0.0357111 0.02023995 0.04109443 -0.0611274 -0.05107513 -0.08979937 0.02001081 -0.08938663 0.06613149 -0.04024589 -0.01238256 0.01333921 -0.03843668 0.01943627 -0.01726075 -0.02358597 -0.03362676 -0.02754215 0.05709462 -0.0098447 0.00150181 -0.01979197 -0.05614686 -0.12158814 0.04665019 0.00783075 -0.07645041 0.0208815 -0.02249799 -0.02451338 -0.01863607 -0.02413995 0.05570809 -0.05246588 0.01551306 -0.03919301 -0.08043914 0.03219596 -0.06040174 -0.00449219 0.04635936 -0.00068843 0.06127788 -0.00322445 -0.04159427 0.03008871 -0.07892986 -0.01530318 0.03261221 0.0534045 -0.03121206 -0.00025046 -0.039535 -0.02366786 0.03766592 0.03578762 -0.09312568 -0.013158 -0.00059743 0.00443742 -0.08617012 -0.00431069 -0.02822995 -0.00535547 -0.06553955 -0.0363972 -0.0088285 0.00208303 -0.04758841 -0.03250733 0.0751288 0.0315822 0.06340706 -0.01583763 0.00512225 0.04435677
Anti_collision_bucket -0.01707706 -0.01165879 -0.01897578 -0.02948319 0.08573052 0.05200717 -0.03188298 0.07229931 0.01785811 0.00061431 -0.02275534 0.01697626 0.00390385 0.00543757 0.02222686 0.0304673 0.02589175 -0.0095692 0.0280227 -0.060421 -0.06394 0.0161674 -0.01574663 -0.02892844 0.03212578 0.02567758 0.03697488 -0.05692935 -0.04755111 -0.08381351 0.01977172 -0.083218 0.06535526 -0.03983244 -0.01086086 0.01228919 -0.03572731 0.0189566 -0.01591419 -0.0206832 -0.02990558 -0.02248779 0.05677429 -0.00891606 0.00338412 -0.01400403 -0.05134416 -0.11187781 0.04071268 0.00743416 -0.07010523 0.01980357 -0.02194019 -0.01664102 -0.01847606 -0.02652926 0.04983576 -0.04868345 0.0151473 -0.03631683 -0.08209404 0.03005783 -0.05703268 -0.00218469 0.04294473 -0.00191729 0.05376026 -0.00744605 -0.04037875 0.02958794 -0.07418114 -0.01519821 0.02629166 0.04942436 -0.03181001 0.00032177 -0.03537697 -0.02179354 0.02883798 0.03523379 -0.08103218 -0.01529688 -0.00012748 0.001844 -0.07900489 -0.0047474 -0.02801154 -0.0091944 -0.05945462 -0.03412181 0.00355401 0.00125341 -0.04468863 -0.03447588 0.06975496 0.0288382 0.05463542 -0.01466742 0.00365772 0.04152352
street_lamp -0.01833775 -0.01149041 -0.02632844 -0.02803274 0.08451951 0.05479305 -0.0298109 0.06915944 0.01732926 -0.00099765 -0.02092161 0.01774869 0.00627069 0.00437858 0.02426785 0.03069723 0.02327019 -0.01179784 0.0304905 -0.06441313 -0.0654305 0.01985674 -0.0149283 -0.03100553 0.02877484 0.02618372 0.0392095 -0.05727742 -0.04866801 -0.08580165 0.01571311 -0.08564084 0.0608867 -0.0373974 -0.00997634 0.01179774 -0.03181734 0.01854393 -0.01349151 -0.01769431 -0.03119654 -0.02287679 0.05667684 -0.0086 0.0039244 -0.01772172 -0.05450662 -0.11524007 0.04179981 0.01189334 -0.07113614 0.02015376 -0.02347351 -0.02098498 -0.02466607 -0.02346731 0.05065481 -0.05054523 0.01410855 -0.03909843 -0.08406553 0.03053636 -0.0586129 -0.0007062 0.04451326 -0.00011846 0.05765314 -0.0088043 -0.04163455 0.02893365 -0.07752079 -0.01666747 0.02983463 0.04882609 -0.03178711 -0.0005709 -0.03543367 -0.02300959 0.03105445 0.0358689 -0.0877516 -0.01071467 0.00109158 -0.00163185 -0.07929692 -0.00381815 -0.03037809 -0.00916209 -0.0585925 -0.0338582 -0.00150697 0.00123274 -0.04640171 -0.0353772 0.06878415 0.02940398 0.05625742 -0.0173178 0.00650459 0.03931231
trash_can -0.01983585 -0.01837755 -0.02266571 -0.03056219 0.09344111 0.0618781 -0.03314517 0.07525027 0.01838176 -0.00129206 -0.02593235 0.02171666 0.00985054 0.00953322 0.0253997 0.03226403 0.02731648 -0.00762917 0.03081059 -0.06868933 -0.06959446 0.02358228 -0.01693505 -0.03588236 0.02716235 0.02738206 0.04229447 -0.06305139 -0.04810698 -0.09302475 0.02191261 -0.09110506 0.07288619 -0.03551102 -0.01175488 0.01479063 -0.03672886 0.02172303 -0.01518509 -0.02115564 -0.03447526 -0.02459179 0.05893256 -0.01120652 0.00263455 -0.02410299 -0.05799895 -0.1231686 0.04497461 0.00867216 -0.07659873 0.02058931 -0.02720257 -0.02353937 -0.01667814 -0.01829443 0.04922403 -0.05486239 0.01516829 -0.0412076 -0.08816074 0.03318722 -0.06066939 -0.00020029 0.04587391 -0.00053829 0.05835726 -0.00708711 -0.04557569 0.03429698 -0.0790922 -0.01679228 0.03161981 0.05267844 -0.03275839 -0.00073715 -0.0356333 -0.02434751 0.03616704 0.03710422 -0.08411692 -0.01593951 -0.00013249 0.00077506 -0.08587505 -0.00434109 -0.02974567 -0.00571194 -0.06300536 -0.03818804 0.00402884 0.00082726 -0.04803877 -0.0336296 0.07623189 0.033517 0.06562714 -0.01870779 0.00384744 0.04134335
Bus_stop_signs -0.01939346 -0.01255672 -0.02564327 -0.0291022 0.08695435 0.05439549 -0.03229491 0.07386623 0.01875159 0.00169469 -0.01953151 0.02152776 0.00879707 0.00833599 0.02675519 0.0290646 0.02388193 -0.00800056 0.02995303 -0.06337176 -0.06553526 0.01736175 -0.01464043 -0.02902494 0.0313205 0.02390646 0.03946532 -0.06100385 -0.04815152 -0.08749901 0.02131502 -0.0839121 0.06297516 -0.03993421 -0.01245173 0.01214791 -0.03624251 0.01909407 -0.01593263 -0.02210405 -0.0319816 -0.02662706 0.05621853 -0.00945681 0.0029328 -0.01789791 -0.05346158 -0.11599963 0.04503749 0.00784688 -0.07299274 0.01972627 -0.02223318 -0.02210917 -0.02007385 -0.02274084 0.05217295 -0.04929234 0.01524035 -0.03715546 -0.08083063 0.03234098 -0.0580863 -0.00421202 0.04458472 -6.809e-05 0.05569978 -0.00621708 -0.04042505 0.02941698 -0.07197719 -0.01645507 0.02881954 0.05256752 -0.03162386 0.00069575 -0.03606255 -0.02337675 0.03400844 0.03156032 -0.0858129 -0.01286789 -0.00077358 0.0044236 -0.08319236 -0.00248663 -0.02718466 -0.00558097 -0.06112979 -0.0366515 0.00137895 -0.00024779 -0.04445311 -0.03140993 0.07248262 0.03200015 0.05831898 -0.01551966 0.00728739 0.03698095
Billboard -0.01955315 -0.01234032 -0.0240675 -0.02885898 0.08299971 0.05237844 -0.03129839 0.06958141 0.01755532 -0.00063124 -0.02221889 0.02069508 0.01034414 0.00628329 0.02496045 0.02933841 0.02289057 -0.00729532 0.02804381 -0.06331524 -0.06298262 0.02061355 -0.01590696 -0.02750215 0.02902424 0.02322222 0.03788228 -0.05774313 -0.04587613 -0.08286877 0.01881114 -0.08247353 0.06259391 -0.03730742 -0.01254671 0.01560808 -0.03344978 0.01918466 -0.01473873 -0.02075316 -0.03120921 -0.02378076 0.05455545 -0.01121826 0.00275332 -0.01602191 -0.05324869 -0.11380731 0.0442047 0.00823156 -0.06956135 0.01849365 -0.02317358 -0.02145673 -0.01746146 -0.02097002 0.04809137 -0.0498232 0.0153188 -0.03757581 -0.07833948 0.03196791 -0.05596631 -0.00335018 0.04200029 0.00023032 0.05399262 -0.00802923 -0.04088257 0.02836152 -0.07108668 -0.01515363 0.02882371 0.04842426 -0.03062216 0.00020047 -0.03394006 -0.02110048 0.03127743 0.03305074 -0.08475434 -0.01240768 8.56e-05 0.00209102 -0.07988801 -0.00389458 -0.02760896 -0.00663091 -0.05739586 -0.03538092 0.00183203 -0.00033179 -0.04354771 -0.03284216 0.06897286 0.03209161 0.05668127 -0.01591546 0.00412148 0.03617293
bird -0.0182065 -0.01158257 -0.02723204 -0.03061402 0.0889117 0.06083341 -0.034289 0.08080814 0.01973672 0.00100019 -0.0231597 0.01936653 0.00918116 0.00993942 0.02760143 0.03231748 0.02806411 -0.009059 0.02926397 -0.06865905 -0.07001766 0.01901896 -0.01537212 -0.03466296 0.03687582 0.02565905 0.03874626 -0.05878872 -0.05122616 -0.09000403 0.02125376 -0.09232424 0.07424588 -0.03765913 -0.01281548 0.01537329 -0.03707326 0.02124803 -0.01786942 -0.02104614 -0.03398941 -0.02464262 0.05910882 -0.01043479 0.00345187 -0.01583393 -0.05621778 -0.12271865 0.04268504 0.00938382 -0.07635359 0.01930027 -0.02566392 -0.02089694 -0.01915779 -0.02219298 0.05220762 -0.05549645 0.01441688 -0.04078873 -0.08817769 0.03222278 -0.06089544 0.00037343 0.04504132 -0.00234553 0.05954003 -0.00933203 -0.04465541 0.03323035 -0.08086072 -0.01633298 0.02834972 0.05555956 -0.03246998 0.00022661 -0.03636475 -0.02136377 0.03052266 0.04100954 -0.08760985 -0.01596696 -0.00188438 0.00257361 -0.08302906 -0.00717057 -0.02963476 -0.01200902 -0.06376369 -0.03917976 -0.00574114 0.00155068 -0.04751785 -0.03684745 0.07252838 0.03105142 0.07247765 -0.0183197 0.00483456 0.04249047
balloon -0.01871595 -0.01192256 -0.02634109 -0.0294565 0.08964211 0.05266733 -0.02959794 0.06768769 0.01720782 -0.00120752 -0.02208308 0.01898705 0.00565132 0.00431687 0.02162061 0.03051232 0.02662282 -0.01074191 0.02998547 -0.06272722 -0.06395254 0.01747638 -0.01396037 -0.02873532 0.02893595 0.02463074 0.0404763 -0.0584388 -0.04821038 -0.08415411 0.02012422 -0.08309798 0.06111206 -0.04047506 -0.01037732 0.01333134 -0.03410885 0.01869101 -0.01377486 -0.0197001 -0.03054024 -0.02383416 0.05674975 -0.00873952 0.00122377 -0.01295544 -0.0531524 -0.11352214 0.04179053 0.01213088 -0.06992179 0.02058489 -0.0226632 -0.02005543 -0.01927643 -0.02569587 0.04916081 -0.04885692 0.01578087 -0.03729658 -0.08220223 0.03116467 -0.05705126 -0.00029141 0.04387012 -0.000213 0.05503849 -0.00450419 -0.0402002 0.0302341 -0.0727354 -0.01758094 0.02931063 0.04962833 -0.03316542 -0.0006572 -0.03443103 -0.02386739 0.03136887 0.03450004 -0.08628261 -0.01068093 0.00074759 0.00082463 -0.0808935 -0.00379171 -0.02841958 -0.00493961 -0.06052334 -0.03451763 0.00184999 0.00400145 -0.04611923 -0.0333969 0.0702208 0.03026344 0.05929159 -0.01528452 0.00897247 0.03776863
wheelchair -0.01834211 -0.01442748 -0.02325784 -0.02973682 0.08062062 0.05447431 -0.03084284 0.0703483 0.01640548 -0.00141286 -0.02592031 0.01764016 0.00732626 0.0051289 0.02122212 0.03061685 0.02498084 -0.00584691 0.02769977 -0.06117594 -0.06313159 0.02081235 -0.01812233 -0.02903685 0.02935821 0.02735348 0.03643232 -0.05585736 -0.04508347 -0.08231392 0.01144084 -0.08358237 0.06286796 -0.03447294 -0.01046486 0.01772512 -0.02977019 0.01884172 -0.01241249 -0.01835786 -0.02921233 -0.02154797 0.05125008 -0.01103839 0.00560956 -0.02029948 -0.05346129 -0.11328454 0.04172795 0.00880523 -0.06805529 0.01950758 -0.0228159 -0.0181947 -0.02034353 -0.02267178 0.04817737 -0.05010057 0.01543792 -0.0369617 -0.08320023 0.03012693 -0.05724783 -0.00012317 0.04313404 -0.00080356 0.05674659 -0.00813755 -0.04166082 0.02894812 -0.07282725 -0.01868094 0.02819137 0.04647635 -0.03061286 0.00013121 -0.03439599 -0.02276472 0.03050084 0.0369432 -0.07974155 -0.01188998 0.00165441 -0.00067105 -0.07778952 -0.00601633 -0.03045337 -0.0107285 -0.05574255 -0.03144491 -0.00145288 -0.00131395 -0.04415579 -0.03269571 0.06734203 0.0291289 0.05889113 -0.01546193 0.00179042 0.03657893
Speed_bumps -0.02366264 -0.0158684 -0.03869517 -0.03960595 0.09577196 0.07029516 -0.03899498 0.08858307 0.02293804 -0.00126172 -0.03443964 0.02153221 0.00402977 0.00437972 0.03244244 0.04205773 0.03891366 -0.02181075 0.03827062 -0.08255845 -0.08397797 0.02208437 -0.02033833 -0.04572754 0.03813218 0.02896917 0.04973067 -0.07822625 -0.06367005 -0.11052007 0.02396026 -0.11300385 0.09130362 -0.0489215 -0.01295271 0.01942356 -0.04627422 0.02399014 -0.02018694 -0.02646674 -0.0383823 -0.02902966 0.0668437 -0.01154409 0.00354074 -0.03141801 -0.06809395 -0.152105 0.05045399 0.01795065 -0.0917013 0.02739701 -0.02952682 -0.02660607 -0.02746032 -0.03284087 0.0636597 -0.06393385 0.01956513 -0.04840908 -0.10915436 0.03954699 -0.07674397 1.546e-05 0.05829113 -0.0020516 0.07610804 0.00443313 -0.05345755 0.04198767 -0.10157535 -0.02661969 0.03635145 0.06440838 -0.04132653 -0.00016137 -0.04808262 -0.03459891 0.03631099 0.04473587 -0.09997499 -0.01852986 0.00076051 -0.0049811 -0.10632491 -0.00686 -0.03745188 -0.01399996 -0.08130716 -0.04302989 -0.00206258 -0.00074199 -0.06083826 -0.05270623 0.09287065 0.03953804 0.07054669 -0.02042781 0.01198218 0.05695093
camera -0.02130962 -0.01899172 -0.02041533 -0.03563885 0.09637041 0.07120195 -0.04043527 0.08567856 0.02200729 0.00014783 -0.03021215 0.02908328 0.01409405 0.01455131 0.03230296 0.03672879 0.02998782 -0.00590907 0.03701972 -0.08167347 -0.08040445 0.02365887 -0.02121908 -0.0368972 0.03943968 0.02909649 0.04918783 -0.07133022 -0.0606172 -0.11045571 0.01774705 -0.10831421 0.08296998 -0.04323986 -0.01420079 0.02017406 -0.03825902 0.02273309 -0.02191288 -0.02419967 -0.04175997 -0.03005917 0.06743223 -0.0119297 0.00361766 -0.03621619 -0.0687761 -0.14639574 0.0538978 0.01135797 -0.09081928 0.02295164 -0.02832225 -0.03242245 -0.02483945 -0.02087713 0.06204126 -0.06614916 0.01599012 -0.04801666 -0.10487907 0.03763431 -0.0707154 -0.00191641 0.05314851 -0.00025432 0.06784234 -0.01896278 -0.05204852 0.03839957 -0.09243046 -0.02073176 0.03914167 0.06145817 -0.03881906 -0.00258502 -0.04366324 -0.02514656 0.04466076 0.04034693 -0.10942865 -0.02011601 -0.00034715 0.00401986 -0.10026313 -0.00515076 -0.03423358 -0.01044895 -0.07364067 -0.04380729 -0.0056005 -0.00449033 -0.05600124 -0.03405359 0.08694805 0.03839111 0.06723491 -0.02355135 0.01088793 0.04764167
plastic_bag -0.02690844 -0.02433001 -0.02861546 -0.04042205 0.12320899 0.07655205 -0.04508553 0.10572634 0.02451848 0.00026521 -0.03799128 0.02363322 0.01384891 0.01541568 0.03386979 0.03806068 0.03143344 0.00486856 0.04078005 -0.08102413 -0.0919494 0.0232413 -0.0186272 -0.04912831 0.04502919 0.04015763 0.05292465 -0.07944431 -0.0653138 -0.10810972 0.01393194 -0.11774889 0.09147116 -0.04351198 -0.01592453 0.02644946 -0.04982626 0.0273532 -0.01740678 -0.02396756 -0.04129193 -0.03359234 0.08025246 -0.01418923 0.00797164 -0.01294253 -0.07371551 -0.14957581 0.0582461 0.01867296 -0.09484241 0.02735398 -0.03485678 -0.02799523 -0.02866968 -0.03448509 0.07050473 -0.06660555 0.02193032 -0.04958119 -0.1117766 0.04165041 -0.08170252 0.00259348 0.06216233 -0.00231504 0.07904717 -0.01505228 -0.05644931 0.0419458 -0.10434471 -0.02111438 0.03487956 0.06833913 -0.04556692 -0.00150933 -0.04781481 -0.03819992 0.04432544 0.05202621 -0.10944986 -0.00312962 -0.00045291 -0.00266116 -0.11292566 -0.00899221 -0.04054727 -0.00815665 -0.08199947 -0.04969975 -0.00546069 -0.0025882 -0.06206324 -0.04914157 0.09259087 0.04091702 0.0819604 -0.02321191 0.02208388 0.05817543
box -0.01900905 -0.01247525 -0.02092804 -0.03200092 0.09469753 0.06189961 -0.03757508 0.08224647 0.01971992 -0.00097282 -0.02557673 0.01977205 0.00381882 0.01104264 0.02838714 0.03394879 0.03214595 -0.00982384 0.03114628 -0.06783482 -0.07262424 0.02033959 -0.01686011 -0.03555334 0.03809364 0.03165347 0.03995191 -0.0632697 -0.05282411 -0.09231802 0.02278962 -0.09378565 0.07967067 -0.03914544 -0.01172546 0.01710789 -0.04029582 0.0225649 -0.01803675 -0.02226857 -0.03484904 -0.02674739 0.0616444 -0.01162396 0.00504083 -0.01458859 -0.05889635 -0.12700875 0.0448092 0.00890569 -0.07974151 0.02095868 -0.02705841 -0.02020703 -0.02074633 -0.02512612 0.05553315 -0.05700566 0.01637061 -0.04102292 -0.09463125 0.03289295 -0.06561652 -0.0013433 0.04879497 -0.00333375 0.06040047 -0.00671337 -0.04690256 0.03409727 -0.08152223 -0.01559214 0.02696461 0.05625005 -0.03501693 -0.00122917 -0.03817233 -0.0242636 0.03245892 0.04363477 -0.09400078 -0.01729371 -0.00054919 0.00181572 -0.08749475 -0.00829015 -0.0326717 -0.01014466 -0.06609393 -0.0411339 -0.00247147 0.00161596 -0.04909802 -0.04293408 0.07639938 0.03205375 0.07115396 -0.01785667 0.00352003 0.0478568
ball -0.01918724 -0.01287107 -0.02571895 -0.03024005 0.09396112 0.05809126 -0.03359888 0.07709954 0.01836146 -0.00076713 -0.02392892 0.0191604 0.00869016 0.00765194 0.02491298 0.03190547 0.02780076 -0.00998397 0.03092764 -0.06541379 -0.06868981 0.02149972 -0.01489126 -0.03318562 0.0324812 0.02740056 0.03931142 -0.06088111 -0.0501518 -0.08949093 0.01949371 -0.08747319 0.06994151 -0.04100492 -0.01110238 0.0164981 -0.03682195 0.02041657 -0.01466027 -0.02085537 -0.03253182 -0.02520341 0.05739217 -0.01032537 0.00389919 -0.01694928 -0.05585919 -0.12084653 0.04388867 0.01015556 -0.07512817 0.02089902 -0.02462967 -0.02148641 -0.02001465 -0.02425732 0.05269412 -0.05312705 0.01545946 -0.03961467 -0.08697739 0.03215685 -0.06166376 -0.00167922 0.04672856 -0.00120214 0.05920069 -0.00696158 -0.04388278 0.03075478 -0.07812367 -0.017408 0.02787529 0.0536341 -0.03335725 -0.00020271 -0.03670039 -0.02547521 0.03339823 0.03911391 -0.08776499 -0.01325601 4.161e-05 0.00127589 -0.08410899 -0.00551862 -0.03062132 -0.00984642 -0.06200638 -0.03609255 0.00052165 0.0015211 -0.04785966 -0.0391679 0.07267215 0.03111741 0.06518762 -0.01698262 0.00742247 0.0397541
sheep -0.01830137 -0.01338127 -0.02094121 -0.03186224 0.08870497 0.0541512 -0.0344389 0.07562451 0.01806756 -0.00117061 -0.02587385 0.02066508 0.0039351 0.00892908 0.02262323 0.03135157 0.02789327 -0.0057436 0.02733299 -0.06198437 -0.06585284 0.01873535 -0.01793049 -0.03220057 0.03557173 0.02864051 0.03704197 -0.05753751 -0.04895295 -0.08576864 0.01767723 -0.08669351 0.07006303 -0.03875016 -0.01208027 0.01837417 -0.03445445 0.02038473 -0.01439127 -0.02132763 -0.03154865 -0.02344689 0.05076836 -0.01302417 0.0060912 -0.01273576 -0.05536079 -0.11706378 0.04369012 0.00930295 -0.07124788 0.01901513 -0.02357682 -0.01600545 -0.01627117 -0.02416092 0.04987737 -0.05244281 0.01685436 -0.03834016 -0.08413576 0.03146845 -0.059772 -0.00019828 0.04378337 -0.00199018 0.05466692 -0.01002657 -0.04381459 0.0305622 -0.07381415 -0.01466441 0.02697732 0.04880841 -0.03354939 5.888e-05 -0.03568558 -0.01984825 0.02732616 0.03898232 -0.08463822 -0.01721931 0.00095304 0.00217099 -0.08147679 -0.00745668 -0.0307478 -0.01123689 -0.05832724 -0.03579439 0.00307762 -0.00058169 -0.04559844 -0.03118675 0.07078455 0.03061116 0.05901659 -0.01591009 0.00321604 0.04228083
cattle -0.0233485 -0.01774212 -0.02394088 -0.0376831 0.11264019 0.07150426 -0.03877411 0.08960066 0.02112339 0.00043089 -0.03221243 0.02498277 0.00741008 0.00851577 0.02738603 0.03885621 0.02934503 -0.01007207 0.03487511 -0.08057896 -0.08159115 0.02516514 -0.02269888 -0.04214571 0.03269631 0.03132139 0.04854367 -0.07270387 -0.05794454 -0.10783526 0.02539061 -0.10806268 0.08430427 -0.04888938 -0.01441347 0.0226493 -0.0435068 0.02642507 -0.01751893 -0.02580458 -0.03846994 -0.02706469 0.06774496 -0.0141226 0.00224005 -0.01813108 -0.06772592 -0.14366797 0.05280263 0.01277439 -0.08876792 0.0241544 -0.03098332 -0.02688915 -0.01972342 -0.02702781 0.05731125 -0.06468375 0.01938384 -0.04837652 -0.10174235 0.03944785 -0.07047119 -0.00024237 0.05335039 -0.00163692 0.06823813 -0.01052797 -0.0542655 0.04424513 -0.09467648 -0.02363352 0.03474427 0.06379155 -0.04038171 0.00102622 -0.04051183 -0.02368526 0.04395658 0.04382219 -0.10619593 -0.01853794 -0.00031928 0.00331569 -0.10043417 -0.00560842 -0.03487865 -0.00791518 -0.07361426 -0.04614709 0.00841499 0.00146901 -0.05643628 -0.03879629 0.08814263 0.04014743 0.08108357 -0.02120908 0.00115776 0.04753865
horse -0.01750021 -0.0094792 -0.02348994 -0.02919805 0.08204135 0.05362781 -0.03130002 0.07156038 0.01612058 -0.00178141 -0.02448934 0.01730044 0.010438 0.00656331 0.02294502 0.03093094 0.02484695 -0.00955265 0.02745145 -0.0594933 -0.06482625 0.01978664 -0.01376869 -0.03405735 0.03275014 0.02718113 0.03785858 -0.05809468 -0.04508781 -0.08384667 0.01935527 -0.08354605 0.06534966 -0.0354782 -0.0096759 0.01465776 -0.03621834 0.02134542 -0.01427113 -0.01930233 -0.02972815 -0.02213858 0.0537245 -0.01016324 0.00383485 -0.01458879 -0.05224877 -0.11181914 0.03995616 0.00849895 -0.07003707 0.0197027 -0.02503401 -0.01721503 -0.01751627 -0.02161809 0.04858078 -0.04978193 0.01565641 -0.03666822 -0.08204562 0.02989765 -0.05706091 -0.00085715 0.04309937 -0.0025902 0.05438946 -0.00513365 -0.04232789 0.03244679 -0.07395034 -0.01699942 0.02629703 0.04971984 -0.03169837 0.00051383 -0.03291129 -0.02393855 0.03147459 0.03696394 -0.08008218 -0.01179963 0.00039622 -0.00056231 -0.07909709 -0.00617024 -0.02821667 -0.00882237 -0.05807068 -0.03573326 -0.00167417 0.00077718 -0.04461839 -0.03514101 0.07042298 0.02990461 0.06462746 -0.01593065 0.00563837 0.03961041
skateboard -0.02130564 -0.01674508 -0.02967229 -0.03728456 0.11063733 0.07104024 -0.04188904 0.09539899 0.02225446 -0.00129827 -0.02798593 0.02523656 0.0058854 0.0187358 0.032092 0.03572845 0.03187915 -0.0025758 0.03324553 -0.08192942 -0.07754171 0.02205626 -0.02102824 -0.03692395 0.04523659 0.03294348 0.04394231 -0.06832556 -0.06020235 -0.10294888 0.01941152 -0.1091239 0.08603992 -0.04615553 -0.01501488 0.01942548 -0.04150426 0.0245865 -0.02104979 -0.02633314 -0.04043437 -0.02993113 0.06737365 -0.01487037 0.006091 -0.01886953 -0.0678944 -0.142491 0.05111611 0.01091605 -0.08925991 0.02227594 -0.02826262 -0.02484709 -0.02058474 -0.02179926 0.05982373 -0.06586459 0.01676456 -0.04785316 -0.10254743 0.03772735 -0.07212199 -0.00190355 0.05152321 -0.00265101 0.06295556 -0.02023878 -0.05320131 0.03561982 -0.08992272 -0.01669444 0.03817957 0.06025168 -0.04130008 -0.00212759 -0.04182772 -0.02342948 0.04178471 0.0442376 -0.10520793 -0.01966804 -0.00105281 0.00705701 -0.09819806 -0.00819805 -0.03258066 -0.01218673 -0.0734698 -0.0476356 -0.00296554 -0.0019729 -0.05550909 -0.03404207 0.08545499 0.03810273 0.08120928 -0.02072042 0.00523838 0.05153578
stone -0.01881717 -0.00891678 -0.02690817 -0.02890731 0.09487551 0.0582178 -0.03182188 0.07643525 0.01840284 -0.0006302 -0.02327654 0.0168584 0.0107456 0.0071151 0.02449239 0.03108997 0.02729601 -0.01258272 0.03035712 -0.06672983 -0.06940477 0.02140976 -0.01184705 -0.03386663 0.03364085 0.02383946 0.04095214 -0.06062493 -0.04925339 -0.08809365 0.02178729 -0.08979201 0.07030675 -0.03947271 -0.01046475 0.01421301 -0.03839518 0.02172345 -0.01454932 -0.02017598 -0.03201497 -0.02436944 0.05872205 -0.00773287 0.00066273 -0.0131508 -0.05480804 -0.11931139 0.04182665 0.01217388 -0.07503343 0.0208208 -0.02653833 -0.02216984 -0.02312843 -0.02825185 0.05210156 -0.05282997 0.01457879 -0.03915464 -0.08331899 0.03215912 -0.06048701 -0.00117653 0.04567265 -0.00157529 0.05885607 -0.00816232 -0.0441902 0.03325007 -0.08044493 -0.01856069 0.0289851 0.05450508 -0.03292729 0.00024439 -0.03522506 -0.02558242 0.03252277 0.03826169 -0.08861798 -0.0123321 -0.00115171 0.0011694 -0.0827408 -0.00413861 -0.02915988 -0.00600066 -0.06418566 -0.03720973 0.00083317 0.00503902 -0.04755236 -0.03663309 0.07335066 0.03112687 0.06394205 -0.0176851 0.00939091 0.041861
